tree
version=v3
num_class=1
num_tree_per_iteration=1
label_index=0
max_feature_idx=8
objective=binary sigmoid:1
feature_names=0 1 2 3 4 5 6 7 8
feature_infos=1:10:25:12:17:7:5:24:20:2:21:14:26:23:3:9:19:6:0:15:16:13:8:18:22:29:11:4:28:27 1:0:2:3:4 18:0:9:19:11:1:22:20:15:8:21:13:12:6:17:5:14:16:2:3:4:10:7:23 1:0 [0:1] [1:264] [0:1646] [0:6] [0:6]
tree_sizes=7842 7883 7486 7902 7916 7902 7952 7925 7932 7952 7940 7961 7944 7967 7979 8007 8017 6735 8006 8016 7361 7779 7989 7752 8021 7162 7951 4851 8027 7071 4163 7996 7993 6998 5367 7965 5334 3893 4834 8001 7983 7996 4896 4572 8019 2619 8006 8031 2645 3346 8037 8026 5704 5967 5193 8038 6909 5831 8022 8014 8049 3675 5954 5638 8014 8024 8056 5303 4177

Tree=0
num_leaves=76
num_cat=14
split_feature=6 4 4 6 6 0 1 0 5 0 0 5 6 6 1 6 6 5 5 6 0 0 6 6 6 5 6 0 0 7 6 5 7 6 6 8 3 7 5 6 8 8 7 0 6 8 7 6 7 8 8 6 5 6 6 6 6 7 6 7 5 7 6 5 8 8 6 6 8 5 0 8 5 6 3
split_gain=4442.57 2565.04 2280.95 1308.34 1219.3 527.844 415.973 359.115 352.73 303.727 284.607 239.112 162.988 155.635 151.205 117.336 112.703 62.509 62.1017 62.0438 73.8449 60.9218 59.2884 43.5031 42.0667 35.2848 29.8496 36.9945 28.5868 24.8737 24.1216 22.3047 21.9452 21.6167 21.1423 22.7798 17.9144 17.275 16.5795 15.9007 15.5475 13.8885 13.5352 10.9753 16.5644 10.0127 9.75261 9.70206 9.55576 8.7497 7.73515 7.6324 13.6 7.11679 6.19503 5.07037 5.41053 4.4512 3.9012 3.73924 3.6445 3.28722 3.17907 2.81063 2.78829 5.45362 2.77649 2.77554 2.74863 2.58698 2.48276 2.36927 2.22283 2.19337 2.15269
threshold=13.500000000000002 1.0000000180025095e-35 1.0000000180025095e-35 6.5000000000000009 28.500000000000004 0 1 2 6.5000000000000009 3 4 5.5000000000000009 17.500000000000004 51.500000000000007 5 9.5000000000000018 4.5000000000000009 1.5000000000000002 2.5000000000000004 35.500000000000007 6 7 7.5000000000000009 18.500000000000004 10.500000000000002 2.5000000000000004 31.500000000000004 8 9 1.0000000180025095e-35 19.500000000000004 1.5000000000000002 4.5000000000000009 2.5000000000000004 1.5000000000000002 5.5000000000000009 10 4.5000000000000009 2.5000000000000004 45.500000000000007 4.5000000000000009 1.0000000180025095e-35 4.5000000000000009 11 10.500000000000002 4.5000000000000009 3.5000000000000004 24.500000000000004 1.5000000000000002 1.5000000000000002 1.0000000180025095e-35 165.50000000000003 5.5000000000000009 2.5000000000000004 14.500000000000002 6.5000000000000009 4.5000000000000009 4.5000000000000009 24.500000000000004 3.5000000000000004 2.5000000000000004 2.5000000000000004 55.500000000000007 3.5000000000000004 1.5000000000000002 1.0000000180025095e-35 10.500000000000002 1.5000000000000002 5.5000000000000009 7.5000000000000009 12 3.5000000000000004 7.5000000000000009 30.500000000000004 13
decision_type=2 2 2 2 2 1 1 1 2 1 1 2 2 2 1 2 2 2 2 2 1 1 2 2 2 2 2 1 1 2 2 2 2 2 2 2 1 2 2 2 2 2 2 1 2 2 2 2 2 2 2 2 2 2 2 2 2 2 2 2 2 2 2 2 2 2 2 2 2 2 1 2 2 2 1
left_child=2 4 3 16 10 22 8 24 9 29 23 12 25 -11 18 38 37 36 21 45 -21 39 34 54 -5 -12 27 58 33 -6 -14 -26 40 48 -4 -36 -17 -1 42 50 -23 -24 -9 44 57 -10 -41 68 67 -19 -3 63 -53 -39 -2 56 -35 -30 -16 -50 -29 -43 69 -20 65 -45 -63 -7 -25 74 -66 -49 -13 -34 -28
right_child=1 14 5 7 6 28 -8 15 19 13 11 72 30 -15 26 17 -18 49 51 20 -22 32 41 47 31 -27 62 60 43 -31 -32 -33 73 55 35 -37 -38 53 -40 46 -42 61 -44 64 -46 -47 -48 71 59 -51 -52 52 -54 -55 -56 -57 -58 -59 -60 -61 -62 66 -64 -65 70 -67 -68 -69 -70 -71 -72 -73 -74 -75 -76
leaf_value=-1.9961663176292643 -2.4304920958904539 -2.6524131472406571 -2.168944206498209 -2.1284798230138979 -2.4190574862740415 -2.6107209447655717 -2.2271504386612468 -2.3470807441259987 -2.3364287735006961 -2.5958113894383494 -2.4937390964944943 -2.3905060988161853 -2.5247797565696479 -2.6242034824858314 -2.4692364649576599 -2.4750024794008123 -2.1947539239945892 -2.4677429250982117 -2.6767502834699135 -2.4482911389047755 -2.5711308563407766 -2.5300951522289359 -2.6824860954890366 -2.4023015091700173 -2.2937198295896031 -2.3499051732634468 -2.6995651596315753 -2.6831211538190685 -2.4452413296450937 -2.5111588406605838 -2.5541072204071633 -2.0582344468568516 -2.6107209447655717 -2.6920591246514398 -2.3808001392937879 -2.1695202203301265 -2.6163748832543439 -2.0733091191212032 -2.1706140234556512 -2.6418236299678552 -2.3783471868564128 -2.4265205943023735 -2.4328749724100076 -2.6151996531713047 -2.6382885062137311 -2.4712853368082439 -2.707095291948463 -2.4264464106021508 -2.511661345653379 -2.2891168674441968 -2.5801222978677858 -2.6859935328923625 -2.4744871720020765 -2.2736119972217179 -2.2596493556429444 -2.7009301906765879 -2.6337644308892143 -2.5879658357870068 -2.5787437763579737 -2.607187972818342 -2.7279266751990598 -2.5902651744602112 -2.7098446412000357 -2.7178903878839749 -2.6093111167739895 -2.6838667493723292 -2.4761443777958569 -2.7213595728623461 -2.2993526609993884 -2.6320666854927053 -2.6396095546600287 -2.4979938916231408 -2.2977020766064564 -2.7042735835507448 -2.7312201443399862
leaf_weight=97.240111038088799 6.5951987206935874 20.567017681896687 11.252471826970575 63.10761284083128 35.226487942039967 3.2819709107279804 19.035431571304798 105.55443654209375 25.599373281002045 4242.2443431764841 542.11908220499754 20.285706028342247 342.45022255927324 3544.1534993946552 8.7831793278455716 304.66067209094763 82.424356006085873 6.5326849818229702 28.756316497921944 102.24120853096247 157.69088818877935 74.953964367508888 3.4069983661174801 52.042681850492954 61.638539873063564 17.691386170685291 888.25761065632105 801.23849675804377 11.033673681318762 238.48988673090935 1810.1476153954864 6.1888595297932616 3.281970910727976 31.94451679289341 48.041803032159805 7.0640517622232428 9.5020872056484205 14.440672211349012 5.5012084543704978 69.765324436128139 7.1578223183751097 8.408096946775915 36.85184495896101 22.536200247704983 10.283508844673632 12.752801299095152 33.288562007248402 19.379256896674633 9.9396833553910273 21.817292518913746 48.198087118566036 9.1582616642117483 3.3444846570491782 13.034113161265848 35.382772415876389 99.396833054721355 30.819269672036171 3.6257964372634879 7.064051680266858 7.6579321250319472 18.91040375828743 5.6887495815753919 679.8993434458971 55.949789650738239 61.826080583035946 21.942319758236408 3.9383651092648506 4.5009886622428894 9.0957480296492559 5.5012083798646918 42.134255081415176 20.441990301012993 34.445066399872303 6.0325750857591629 25.724400483071804
leaf_count=1312 98 323 157 879 525 51 257 1549 374 65810 8225 300 5231 55316 132 4603 1167 98 454 1529 2431 1146 54 773 893 259 14087 12663 165 3632 27829 83 51 506 710 98 148 197 76 1093 105 125 551 351 161 192 529 289 151 315 745 145 50 187 508 1577 482 56 109 119 302 88 10806 891 961 347 59 72 131 86 660 310 499 96 411
internal_value=0 0.321723 2.26883 3.25139 0.534116 0.451503 0.340331 2.51869 0.32611 0.286877 1.09167 1.00738 0.96845 0.248983 -0.535647 1.97312 5.42658 1.68229 0.0744636 1.39264 1.20875 0.328671 2.49385 2.46397 4.07343 1.44966 -0.623687 -0.471965 -0.116537 1.3035 0.842689 3.69477 0.932454 -0.377803 3.24201 2.87736 1.54452 6.0719 2.76326 -0.0473592 1.19708 1.24845 2.65935 0.171746 0.675118 2.57657 -0.297487 2.23412 0.447174 3.1044 0.319594 -0.602694 0.118448 4.8131 3.52523 -0.532029 -0.302227 1.58292 0.764127 0.840893 -0.499968 1.58494 -0.706545 -0.709276 0.0464191 -0.157717 1.00512 -0.437426 2.5181 -0.664885 0.13885 1.7471 3.06543 -0.386199 -0.668996
internal_weight=0 14083.3 1277.22 828.494 11287.5 448.724 8377.43 621.355 8358.4 8060.11 2910.08 2767.14 2712.41 7786.4 2795.83 490.42 207.139 342.513 360.454 298.284 259.932 263.245 87.8005 142.938 130.935 559.81 2435.38 835.996 360.923 273.716 2152.6 67.8274 91.4263 187.541 66.3583 55.1059 314.163 124.715 147.907 171.819 82.1118 21.4422 142.406 173.382 24.943 38.3522 103.054 100.96 25.3806 28.35 68.7651 97.2089 12.5027 27.4748 41.978 162.161 62.7638 14.6595 15.8472 17.5976 820.149 18.0352 1599.38 84.7061 148.439 44.4785 9.62711 7.78296 61.1384 919.483 103.96 39.8212 54.7308 9.31455 913.982
internal_count=237750 218742 19008 12058 174518 6950 130066 9195 129809 125283 44452 42343 41544 121126 44224 7340 2863 5164 5628 4526 3960 4088 1291 2109 1855 8484 38596 13206 5659 4157 33060 976 1398 2958 965 808 4751 1696 2176 2690 1251 326 2100 2701 382 566 1622 1503 393 413 1068 1540 195 384 606 2565 988 221 241 270 12965 272 25390 1345 2319 698 147 123 904 14584 1621 599 799 147 14498
cat_boundaries=0 1 2 3 4 5 6 7 8 9 10 11 12 13 14
cat_threshold=1048576 9 19923532 69206081 69206600 18 20058240 58867714 67469376 16912908 2 69208097 8405378 2
shrinkage=1


Tree=1
num_leaves=76
num_cat=20
split_feature=6 4 4 1 6 1 0 1 0 5 6 0 5 1 5 6 6 5 5 0 0 0 5 0 6 0 5 3 6 6 0 6 0 8 6 6 7 8 7 8 2 7 8 1 7 7 6 7 8 0 8 7 8 6 5 6 5 8 0 7 6 6 5 8 6 6 2 6 6 6 8 6 8 8 6
split_gain=2701.69 1743.66 1251.48 2804.75 537.646 394.43 230.966 208.475 200.609 182.658 161.962 161.512 141.229 128.611 57.5259 56.6751 54.9351 52.3043 50.1452 62.5469 62.5137 49.6441 49.2402 48.385 47.4495 34.989 29.7428 30.4332 25.8016 25.1135 24.5026 23.6707 21.1991 13.9766 12.5913 12.2682 11.9664 44.4789 11.304 10.864 10.8493 10.6513 10.4398 8.99329 8.58103 10.4984 8.50694 8.05029 8.0141 7.93615 7.55002 7.34766 7.17745 6.98539 10.5753 6.66576 6.3987 6.0733 5.86492 5.77569 5.122 4.47648 4.26734 4.24451 4.06056 3.15893 3.54122 2.74369 3.51907 2.73628 5.90488 5.78235 2.67001 2.45743 2.16872
threshold=17.500000000000004 1.0000000180025095e-35 1.0000000180025095e-35 0 33.500000000000007 1 2 3 4 6.5000000000000009 10.500000000000002 5 5.5000000000000009 6 1.5000000000000002 13.500000000000002 51.500000000000007 1.5000000000000002 1.5000000000000002 7 8 9 2.5000000000000004 10 27.500000000000004 11 2.5000000000000004 12 31.500000000000004 12.500000000000002 13 2.5000000000000004 14 5.5000000000000009 9.5000000000000018 4.5000000000000009 1.0000000180025095e-35 1.5000000000000002 4.5000000000000009 3.5000000000000004 15 1.0000000180025095e-35 5.5000000000000009 16 3.5000000000000004 4.5000000000000009 24.500000000000004 1.5000000000000002 1.5000000000000002 17 3.5000000000000004 3.5000000000000004 1.5000000000000002 165.50000000000003 5.5000000000000009 21.500000000000004 1.5000000000000002 2.5000000000000004 18 3.5000000000000004 28.500000000000004 14.500000000000002 4.5000000000000009 4.5000000000000009 8.5000000000000018 55.500000000000007 19 20.500000000000004 25.500000000000004 6.5000000000000009 5.5000000000000009 4.5000000000000009 1.5000000000000002 2.5000000000000004 37.500000000000007
decision_type=2 2 2 1 2 1 1 1 1 2 2 1 2 1 2 2 2 2 2 1 1 1 2 1 2 1 2 1 2 2 1 2 1 2 2 2 2 2 2 2 1 2 2 1 2 2 2 2 2 1 2 2 2 2 2 2 2 2 1 2 2 2 2 2 2 2 1 2 2 2 2 2 2 2 2
left_child=2 4 3 -1 9 29 15 8 18 11 26 46 16 22 52 64 -10 24 20 -20 -6 -19 23 38 -13 -14 27 -8 30 33 -15 47 69 35 43 41 37 -25 56 -38 49 -4 -36 -34 67 60 51 72 -17 -32 -48 -2 -12 -24 -55 -47 -3 -28 -42 -37 -46 -50 -16 73 -5 66 74 -11 -69 71 -71 -33 -7 -49 -30
right_child=1 13 5 6 7 31 10 -9 12 44 14 17 25 28 62 48 -18 21 19 -21 -22 -23 53 36 -26 -27 57 -29 65 -31 40 32 34 -35 42 59 39 -39 -40 -41 58 -43 -44 -45 45 55 50 63 61 -51 -52 -53 -54 54 -56 -57 -58 -59 -60 -61 -62 -63 -64 -65 -66 -67 -68 68 -70 70 -72 -73 -74 -75 -76
leaf_value=0.78953716678087471 0.15698302228812355 0.13866910870462246 0.32255597914506023 0.46016823198917634 0.036676682272759345 -0.054077360017626419 0.1833158646538392 0.27286235587817059 0.025182212306503578 0.13265521605891373 0.095300088741585243 0.068604661711348616 0.043214497777801161 0.060361919990367788 0.17365777997041557 0.11156436693504246 0.0065452453077375341 0.049650262171262748 0.01286676030361052 0.14786738501378136 0.11716772905278652 0.13777727192325728 -0.068508901889422033 0.0024133337450084995 0.043138299477918189 0.12573181942211695 0.19662158396123561 0.033473390687176148 0.048481322851297859 -0.002369736459334585 -0.030978496792969507 -0.057714339282424199 -0.012998654865362964 0.316233232973328 -0.029530959043361039 0.16572740512306772 -0.027084174123867516 0.32780590353428446 -0.035121630244577998 0.031318420170952051 -0.0612813277501051 0.19333187830059742 0.044142436333653279 0.051635833230293332 0.13561069184061778 0.076781036371526945 0.16801766116368341 0.089293731539173415 0.12777528256639278 0.034986459907591798 0.10839991366915032 0.22436308925687309 0.11647450919190264 -0.049711997134175262 0.13129755331561335 0.23704152361905462 0.059256482016330804 0.36055155536551847 -0.033748117598742432 0.065711148573969549 0.017779470055552006 0.27687608173511663 0.23887563617959662 0.13567441666648256 0.34734340291612298 -0.073534064664852364 -0.064231910374331472 0.31907192339360047 0.21845248253875221 -0.045637259374577244 -0.10196717013029494 0.0015083734963078118 0.030608478162594873 0.020256102229264619 -0.021778008033688429
leaf_weight=63.056184574961662 56.893454164266586 46.243374891579151 11.04764538258314 25.406853690743446 442.2328659966588 6.6920835971832258 563.36663550138474 23.064273983240128 3007.9357369989157 5.6377887651324263 260.16307021677494 1885.4241101369262 145.00565857440233 14.809251185506582 76.243369460105896 7.6139685064554206 3336.2051836252213 165.22183687984943 59.820376999676228 141.39994901418686 128.89684946089983 170.99753279238939 76.423780485987663 24.562746051698927 1208.4165573865175 129.26435196399689 8.6048047468066233 14.398150391876696 5.4865749329328564 5.7004093192517749 26.245191171765327 31.73970290645957 33.355037234723568 13.303822234272955 133.72174904122949 24.520829364657402 114.62240185961127 4.0713218487799159 4.6660425923764697 43.029142376035452 347.42123186215758 41.417411416769028 21.528315421193838 46.341649800539017 11.067863821983339 4.4103621467947987 52.557123713195324 8.6887011826038414 5.1663385555148151 24.786004532128572 52.149069122970104 39.331144116818905 661.76788844168186 8.7510094270110113 3.8324271067976943 19.227939158678055 15.783091373741625 12.26683174073696 243.06953656673431 9.9576211869716627 5.7992656826972953 20.198360033333302 23.40017943829298 8.6918673664331418 36.871717013418674 636.26568377017975 849.79226525872946 12.897580720484255 31.336456209421158 165.0433699041605 21.061691984534264 33.109548456966877 6.3079093769192696 12.719706103205679 12.615942906588314
leaf_count=439 691 630 119 215 6551 109 5982 223 45239 64 3458 26929 2128 219 916 85 51667 2394 885 1953 1804 2421 1290 374 17980 1707 83 172 90 81 433 528 521 131 2120 305 1815 56 76 654 5756 469 338 680 129 51 682 127 65 401 713 461 8756 145 50 221 220 114 3991 134 78 209 259 126 356 10806 14284 140 356 2734 353 518 98 183 210
internal_value=0 0.239432 1.38709 1.81715 0.408942 0.181528 1.53432 0.253205 0.241095 0.719052 1.42208 0.683678 0.184016 -0.514693 1.18649 3.09855 0.153841 0.626011 0.720759 1.15944 0.577045 1.00304 0.0612976 0.288143 0.58675 0.885581 1.8452 1.79646 -0.603345 1.84216 -0.439395 -0.185174 -0.251902 2.1294 -0.0243825 1.93718 -0.00144529 0.581797 0.945613 -0.110469 -0.466508 2.26067 -0.190976 0.295468 2.11722 1.67874 1.55225 0.513762 2.24206 0.0158349 1.39631 1.86549 1.10609 -0.572673 0.11024 2.11471 1.19723 3.05048 -0.50772 1.39508 0.983604 2.52505 1.91195 0.790342 3.99916 -0.678553 -0.636123 2.43334 2.54196 -0.445323 -0.525231 -0.279138 -0.137345 0.510098 0.00616772
internal_weight=0 13637.7 2413.47 1778.52 11135.2 634.949 1715.47 7413.83 7390.76 3721.37 1620.21 3630.99 6618.41 2502.48 1021.57 95.2572 6344.14 3430.06 772.35 201.22 571.13 336.219 341.985 252.978 3093.84 274.27 598.636 577.765 2160.49 105.948 656.331 529.001 485.901 100.247 234.947 86.9435 186.286 28.6341 66.6925 157.652 641.522 52.4651 155.25 79.6967 90.3773 40.5054 200.931 43.1003 32.9787 51.0312 104.706 96.2246 921.931 89.0072 12.5834 23.6383 62.0265 20.8716 590.491 34.4785 16.8671 25.3647 99.6435 30.1003 62.2786 1504.16 867.895 49.8718 44.234 250.954 186.105 64.8493 13 21.4084 18.1025
internal_count=237750 206967 30783 21109 165467 9674 20670 112157 111934 53310 19740 52271 100741 41500 13389 930 96906 49724 11193 2838 8355 4815 5310 3825 44909 3835 6351 6154 36190 1239 10800 8435 7792 1158 3659 1027 2899 430 926 2469 10581 588 2458 1201 1039 479 2547 643 359 834 1395 1152 12214 1485 195 272 850 197 9747 439 207 274 1175 436 571 25390 14584 560 496 4133 3087 1046 207 310 300
cat_boundaries=0 1 2 3 4 5 6 7 8 9 10 11 12 13 14 15 16 17 18 19 20
cat_threshold=4 16 2097224 9 82837577 69206601 18 4194376 11534337 42483750 1048748 33571874 2 67371016 16913924 5839874 4 61871104 34084482 8396820
shrinkage=0.1


Tree=2
num_leaves=72
num_cat=19
split_feature=4 1 6 1 6 0 5 0 5 1 0 6 0 6 6 6 2 2 6 5 5 0 0 6 6 2 6 0 7 7 8 2 6 6 7 2 0 8 8 3 6 6 6 5 8 5 2 8 7 8 7 6 6 6 6 6 6 6 6 8 7 5 3 8 7 6 5 8 6 8 6
split_gain=1851.75 2244.95 1291.88 458.428 328.269 202.265 158.472 118.097 107.446 103.658 82.3141 76.4217 70.6959 66.2901 64.8297 58.0058 51.0729 50.4761 48.8561 47.7447 42.0605 32.5311 31.6738 29.8183 27.7774 21.6423 16.9512 16.253 15.6009 13.1898 20.8895 12.6563 12.6459 12.3418 12.5804 8.90501 8.62595 8.40885 8.3938 6.8027 6.55901 5.92878 5.81332 8.34699 5.78059 5.57165 5.20573 5.02724 8.34818 7.77549 5.40045 4.33147 4.11514 4.03248 3.74144 3.73962 3.40038 3.22791 3.10163 2.89114 2.68445 2.49056 2.40631 2.3212 8.11764 2.08056 1.17488 0.968201 0.699395 0.44234 0.415496
threshold=1.0000000180025095e-35 0 18.500000000000004 1 33.500000000000007 2 2.5000000000000004 3 6.5000000000000009 4 5 9.5000000000000018 6 31.500000000000004 33.500000000000007 10.500000000000002 7 8 352.50000000000006 1.5000000000000002 2.5000000000000004 9 10 6.5000000000000009 56.500000000000007 11 159.50000000000003 12 4.5000000000000009 1.0000000180025095e-35 1.5000000000000002 13 7.5000000000000009 44.500000000000007 3.5000000000000004 14 15 1.5000000000000002 4.5000000000000009 16 8.5000000000000018 21.500000000000004 165.50000000000003 5.5000000000000009 3.5000000000000004 3.5000000000000004 17 4.5000000000000009 2.5000000000000004 1.0000000180025095e-35 4.5000000000000009 12.500000000000002 24.500000000000004 26.500000000000004 17.500000000000004 10.500000000000002 18.500000000000004 6.5000000000000009 55.500000000000007 1.0000000180025095e-35 3.5000000000000004 7.5000000000000009 18 5.5000000000000009 4.5000000000000009 15.500000000000002 1.5000000000000002 2.5000000000000004 188.50000000000003 2.5000000000000004 4.5000000000000009
decision_type=2 1 2 1 2 1 2 1 2 1 1 2 1 2 2 2 1 1 2 2 2 1 1 2 2 1 2 1 2 2 2 1 2 2 2 1 1 2 2 1 2 2 2 2 2 2 1 2 2 2 2 2 2 2 2 2 2 2 2 2 2 2 1 2 2 2 2 2 2 2 2
left_child=1 2 5 32 8 15 7 26 12 20 24 29 46 22 -3 57 -14 -12 -9 25 21 28 52 27 -8 -13 -6 -24 38 30 -7 -21 47 44 -35 65 -25 -37 -5 -31 -34 60 45 68 -23 56 -4 48 49 -2 -49 55 67 -43 -53 -42 -22 -1 61 -47 -10 62 -15 66 -65 -17 -60 -11 -44 -51 -50
right_child=3 14 4 9 6 11 10 18 41 13 17 19 16 58 -16 35 -18 -19 -20 31 42 33 23 36 -26 -27 -28 -29 -30 39 -32 -33 40 34 -36 37 -38 -39 -40 -41 51 53 43 -45 -46 59 -48 50 70 69 -52 54 -54 -55 -56 -57 -58 -59 63 -61 -62 -63 -64 64 -66 -67 -68 -69 -70 -71 -72
leaf_value=0.27406077946215501 0.26384768314956009 0.47904855028290066 -0.0099137938602913145 0.077697167171878745 0.074310067813467537 0.064383900352114692 0.053142794873233548 0.012825347707560334 0.11999720109361695 0.082625229098927638 0.11461302369260476 0.013204508844776678 0.10669285818748907 -0.060128165598247491 0.2909743344241903 0.018643892124546001 0.047621364743473588 0.041316476332771572 0.27979119681530817 -0.018218642299341951 0.059773278084235618 0.012720577726019583 -0.024285264338260532 -0.048422111050056643 -0.0028355596678345044 0.085867261837302811 0.2510902569428009 0.037929751548712663 -0.06952612769758594 0.14546780357297195 0.18656159171638845 0.14966967945336354 -0.013613749008648339 0.00073601122974708481 -0.072463183965262884 0.13139681887648533 -0.02469106308837344 0.18263197845664272 0.18433116151609111 0.058722937633199468 0.086546320431584306 0.20132601918613366 -0.0056473364804194692 0.11016792884258926 0.071669377417360583 -0.029835228694990945 0.11810780156537809 0.1079718256048021 0.109177404388469 0.13434161623368568 0.24274585938941967 -0.0021720589796086561 0.040701341330159901 0.14491611778567665 0.11083080725991179 0.21087327700610087 -0.037771994987732108 0.22216066798602019 -0.072246749601306781 -0.093052936758946228 0.023749621199637541 0.00685284605784131 -0.095143261375134638 0.016641612869582444 -0.066998650344224878 -0.064770095480269768 -0.10120832651355155 0.17519532356913436 -0.066076312569359946 0.19970710036350142 0.059630190309044331
leaf_weight=56.503765791654587 9.6406101733446103 124.89522875845432 10.063381046056746 76.028049923479557 305.49169676750898 58.684817977249622 164.66079541295767 6373.5919391289353 7.2401545792818052 5.0685238614678401 304.18064803630114 61.251754462718964 159.26153243333101 793.74225543439388 28.530880808830261 5.5928891152143461 3258.4577979370952 193.25456089526415 5.8647931739687911 10.226746074855326 3.2381131909787682 61.105889521539211 75.566152170300484 638.92591883614659 190.4657731205225 1100.2197140902281 4.7220986410975447 71.404249284416437 5.894002314656972 405.71603041142225 18.322669737040997 122.50296193361282 4.8481154292821911 76.389069881290197 32.885380499064922 58.25278651714325 312.10080925747752 154.42516171187162 8.0330459810793382 11.113402143120764 7.9811813011765498 33.290277369320393 3.0310886055231077 4.2764343470334998 22.171673066914082 10.209828827530144 198.67315276712179 6.3460731655359295 18.49045038223267 32.346904397010803 19.891077890992165 5.6889204680919629 6.7930309772491446 56.174168899655342 4.9601105786859989 5.4209497421979904 24.584752760827541 82.852769643068314 488.33578869700432 41.209832459688187 5.3977964222431183 5.2206522002816191 22.343885280191898 13.298307523131369 74.443103097379208 4.684906467795372 20.345039613544941 6.7837800346314907 5.3472978323698044 6.5877834632992736 6.7023264393210402
leaf_count=397 81 598 118 989 4026 537 2377 95916 70 69 4007 763 2156 14087 223 57 44978 2624 84 113 51 939 1191 10980 2842 13429 58 1081 99 3632 151 1266 62 1190 564 624 5185 1568 88 117 98 303 52 50 319 183 2236 65 180 316 158 81 97 564 64 60 428 628 8850 746 59 86 411 237 1348 55 371 87 93 64 74
internal_value=0 0.514134 0.468327 -0.34949 0.333097 1.17881 0.213056 0.161253 0.575797 -0.432057 0.618861 1.01882 0.546987 -0.504985 4.19049 1.88352 0.507075 0.876471 0.130941 0.895352 0.0619278 0.254768 -0.32428 -0.346486 0.225626 0.829022 0.753772 0.0691551 0.710278 1.36051 0.95473 1.46524 1.42612 0.00256636 -0.217501 1.60415 -0.414363 1.61711 0.899346 1.43301 0.902268 1.58384 -0.520589 0.101886 0.290792 -0.620028 1.11748 1.70826 1.52337 1.77562 2.15309 1.10866 0.73613 1.679 0.554583 1.47985 -0.247394 2.45007 -0.650544 -0.813091 0.836446 -0.607617 -0.612021 -0.708542 -0.542772 -0.115282 -0.736014 1.45118 -0.471479 1.50125 0.987756
internal_weight=0 13574.6 13421.1 3037.68 11270.8 2150.35 7542.23 6689.67 3728.56 2908.78 852.562 1788.04 3626.46 2534.37 153.426 362.312 3417.72 497.435 6379.46 1294.2 374.404 282.507 1116.64 1098 355.127 1161.47 310.214 146.97 89.9551 493.837 77.0075 132.73 128.905 192.552 109.274 222.956 951.027 212.678 84.0611 416.829 28.8993 102.102 91.8973 12.6548 83.2776 79.2425 208.737 100.005 73.7681 48.5753 26.2372 24.0512 18.6453 89.4644 10.649 13.4021 27.8229 139.357 1417.73 51.4197 12.638 821.307 816.086 596.422 87.7414 10.2778 508.681 11.8523 8.37839 38.9347 25.1928
internal_count=237750 186576 185755 51174 162418 23337 111934 100084 50484 49871 11850 20008 49488 44080 821 3329 47134 6631 96000 15571 5791 4188 18690 18437 5219 14192 4084 2272 1176 4437 688 1379 1303 3012 1754 2304 16165 2192 1077 3749 365 996 1603 195 1258 1408 2354 938 715 461 223 303 253 867 145 158 479 1025 25390 929 129 14584 14498 10806 1585 112 9221 156 145 380 254
cat_boundaries=0 1 2 3 4 5 6 7 8 9 10 11 12 13 14 15 16 17 18 19
cat_threshold=9 16 70254684 77594696 2 34128974 69206089 8399114 2561 1049772 67176512 246900 41948930 7536752 2675716 50992768 2 1188224 2
shrinkage=0.1


Tree=3
num_leaves=76
num_cat=22
split_feature=4 1 6 1 0 5 6 0 1 6 6 0 6 2 6 1 2 5 6 2 6 5 6 0 0 6 0 6 2 2 8 2 5 8 5 5 6 7 8 7 2 6 2 6 2 6 7 7 7 6 5 5 8 8 8 7 6 2 0 8 8 8 8 7 7 7 6 3 6 5 6 6 6 6 7
split_gain=1440.15 1343.69 916.656 357.695 195.712 166.709 123.683 107.574 90.7499 85.485 85.4521 83.6319 61.605 58.7383 53.3049 47.074 40.84 34.9148 34.4601 36.5638 33.822 33.2185 27.2464 25.115 24.296 24.173 21.6862 19.2049 17.8403 17.3604 17.4721 16.6063 15.7068 14.4306 14.0645 13.3733 13.3048 11.9505 10.7232 10.4061 12.0879 10.4694 9.48395 10.6699 8.41302 7.02198 6.52005 6.26151 5.93511 5.2019 6.68915 5.31731 4.31749 4.16755 4.03784 3.18619 3.05642 3.92043 8.39262 2.97008 2.84284 2.40391 2.27831 7.27564 2.27118 7.09219 2.56834 2.21614 1.73556 1.25975 0.964678 1.53198 0.660688 0.643779 0.521267
threshold=1.0000000180025095e-35 0 25.500000000000004 1 2 2.5000000000000004 11.500000000000002 3 4 17.500000000000004 41.500000000000007 5 31.500000000000004 6 13.500000000000002 7 8 2.5000000000000004 39.500000000000007 9 47.500000000000007 7.5000000000000009 2.5000000000000004 10 11 17.500000000000004 12 4.5000000000000009 13 14 2.5000000000000004 15 7.5000000000000009 4.5000000000000009 2.5000000000000004 1.5000000000000002 43.500000000000007 4.5000000000000009 1.0000000180025095e-35 3.5000000000000004 16 51.500000000000007 17 6.5000000000000009 18 8.5000000000000018 1.5000000000000002 1.5000000000000002 1.5000000000000002 165.50000000000003 5.5000000000000009 3.5000000000000004 2.5000000000000004 5.5000000000000009 1.5000000000000002 1.0000000180025095e-35 55.500000000000007 19 20 5.5000000000000009 1.0000000180025095e-35 1.5000000000000002 5.5000000000000009 4.5000000000000009 2.5000000000000004 4.5000000000000009 9.5000000000000018 21 1.5000000000000002 1.5000000000000002 3.5000000000000004 7.5000000000000009 3.5000000000000004 188.50000000000003 1.0000000180025095e-35
decision_type=2 1 2 1 1 2 2 1 1 2 2 1 2 1 2 1 1 2 2 1 2 2 2 1 1 2 1 2 1 1 2 1 2 2 2 2 2 2 2 2 1 2 1 2 1 2 2 2 2 2 2 2 2 2 2 2 2 1 1 2 2 2 2 2 2 2 2 1 2 2 2 2 2 2 2
left_child=1 9 4 42 14 7 28 26 17 -1 16 20 22 21 45 -12 -9 24 38 -20 31 -8 48 44 37 -15 36 -25 47 30 -16 -7 -22 -28 -30 -31 -4 46 -13 40 -26 -41 64 68 -24 52 -5 -6 61 51 73 55 -3 -47 -45 -19 57 58 -14 -50 -53 -10 69 -64 66 70 74 -59 -44 -58 -66 -72 -67 -51 -2
right_child=3 2 5 8 6 11 13 10 12 -11 15 18 56 25 29 -17 -18 49 19 -21 32 -23 23 27 39 -27 33 -29 34 35 -32 -33 -34 -35 -36 -37 -38 -39 -40 41 -42 -43 43 54 -46 53 -48 -49 59 50 -52 60 -54 -55 -56 -57 62 67 -60 -61 -62 -63 63 -65 65 72 -68 -69 -70 -71 71 -73 -74 -75 -76
leaf_value=0.33153921737282288 0.068540858372624303 0.16248427358949491 0.15413175114306088 0.10831113329410863 -0.068187491187290381 -0.032338148140445992 0.11367076077004368 -0.023355621747112709 -0.05129177143976657 0.64143427297781308 0.12432539327474167 0.04658961553642834 0.054794609283344502 0.069614521287516787 0.10470339566042984 0.0077050075071724844 0.031419349544659601 0.046319013140302234 0.093128351691708688 0.025784753399798868 -0.0091606722208919088 0.32549790886253654 -0.0027943898853083409 0.19056674791262285 -0.023411382363846073 0.049381382500841814 0.063414050936983435 -0.0016340870895385348 0.10645840476907592 0.060537154006665872 0.16982761367151877 0.066525141593193379 0.041466715158332751 0.020018737824088556 0.17954685562837486 0.14667261340056736 0.085629363297711758 -0.067156488943303769 0.13170318000255496 0.011386473834856378 0.033931066939238856 -0.077180249135218218 0.26337208041109461 0.018820242838576941 -0.04269586682002921 0.16450713505190767 0.051822939062777587 0.033190551241461655 0.052525726704955811 -0.0052432637820336511 0.093684656679657169 -0.027813195727415297 0.21978145551102887 0.095506335941994383 0.13246654378289915 -0.038213000103887174 -0.069574624181582015 -0.058291381488776696 -0.038549500832516653 0.14032593055227452 -0.091408018394407833 0.029846745110897705 0.014877666696429252 -0.064237715973096618 -0.011679988871057331 0.12294651723162449 0.021711390405032407 -0.093536512698904076 0.18397524103704266 -0.10019916171185622 0.059172070493131813 -0.007388645421757648 0.065350127737851649 -0.06370670824359409 0.11189634170762053
leaf_weight=137.32979223132133 11.060612536966799 40.181865938007832 45.348584741353989 36.002625070512295 7.9517917782068279 16.362373627722263 176.09930060058832 137.50917655229568 6.3522454388439638 10.033376276493071 23.974462538957596 17.814338847994804 6.4978711567819118 939.19616591185331 75.31457095593214 4865.4305308237672 3259.8739109486341 4.6053170710802105 263.45565651357174 153.90564905107021 196.31061147153378 7.0956745073199263 69.702501256018877 4.3856684379279605 49.46302779763937 1644.6259205937386 236.65905728936195 149.389832098037 748.3824048936367 131.14461428672075 115.53242137283087 185.43297657370567 87.921137638390064 114.92553782463074 28.697442978620529 20.840954676270485 91.519752159714699 5.5452701039612284 165.48330429196358 23.908006694167852 90.686163384467363 28.579412765800953 11.514879986643789 4.5005571283400085 817.72152165696025 99.668131440877914 54.423229150474072 18.074252255260944 27.645613558590416 3.0160874873399717 4.6785306558012953 9.9438957981765252 63.549390256404877 15.051652625203131 13.003246523439882 22.584249474108219 458.0095112323761 740.9682201705873 10.682236947119238 4.2505987882614127 37.94255417957902 6.329387504607439 13.495077930390833 70.147319670766592 8.9351583942770976 8.226626358926298 5.5292862169444552 20.264643631875515 37.56829284876585 18.594577971845865 6.6808257773518545 5.9282786846160889 8.8234661407768709 5.0445984750986099 22.155347861349583
leaf_count=439 92 248 493 431 74 217 2071 1947 109 55 155 201 110 10468 813 72976 45531 79 3149 2027 2896 52 1191 60 757 20944 2921 2407 6614 1369 1163 2380 1216 1472 203 196 1044 99 1859 369 1362 524 76 53 14400 738 646 161 376 52 50 183 373 111 140 400 8850 13878 190 53 746 94 237 1348 82 60 66 406 310 371 68 72 85 93 199
internal_value=0 0.442567 0.409106 -0.326043 0.804784 0.243697 0.710988 0.197897 -0.405492 3.34288 0.170192 0.613019 -0.476772 0.612282 1.36219 0.0857212 0.292198 0.054104 0.860195 0.712582 0.282935 1.17233 -0.301302 -0.334177 0.223609 0.565413 0.649867 0.0473723 1.05873 1.13381 1.37633 0.600748 0.0659032 0.479657 1.07997 0.687369 1.01889 0.602072 1.23729 0.00174158 0.144159 -0.373795 1.16011 1.59178 -0.396344 1.77588 0.752521 0.00612669 0.457037 -0.493135 0.0916008 -0.592255 1.9935 1.56358 1.05842 -0.227599 -0.622321 -0.578851 0.0436299 0.681363 -0.790413 -0.11574 -0.68158 -0.514481 0.636522 0.521186 0.895554 -0.585826 2.07488 -0.709767 0.127419 0.296346 0.98412 -0.448243 0.998845
internal_weight=0 14140.7 13993.3 2944.79 4131.41 9861.93 3570.12 8775.24 2800.86 147.363 8286.79 1086.69 2424.44 2767.02 561.284 4889.4 3397.38 376.423 600.659 417.361 486.027 183.195 1085.78 1041.2 288.608 2583.82 488.453 153.776 803.106 342.833 190.847 201.795 284.232 351.585 777.08 151.986 136.868 95.9711 183.298 192.637 140.149 52.4874 143.927 66.587 887.424 218.451 90.4259 26.026 44.5778 87.8152 12.7392 75.076 103.731 114.72 17.5038 27.1896 1338.66 778.413 17.1801 31.8962 47.8864 12.6816 560.246 83.6424 77.3396 38.5944 38.7452 761.233 49.0832 476.604 21.5443 12.6091 17.0501 8.06069 33.216
internal_count=237750 186576 186082 51174 45598 140484 40587 126539 49871 494 120609 13945 44080 33535 5011 73131 47478 5791 7236 5176 6709 2123 18690 18058 4188 31412 5930 2467 7052 3541 1976 2597 4112 4393 6817 1565 1537 1176 2060 3012 2119 893 1303 579 15591 1470 1077 235 632 1603 195 1408 621 849 193 479 25390 14584 300 429 929 203 10806 1585 724 367 357 14284 386 9221 222 140 145 145 291
cat_boundaries=0 1 2 3 4 5 6 7 8 9 10 11 12 13 14 15 16 17 18 19 20 21 22
cat_threshold=4 16 607125592 77594697 2 34127982 8403522 2 4391028 2099713 60429958 1049772 67108928 2097856 1 6409824 334026 1 14224418 8396820 1179812 2
shrinkage=0.1


Tree=4
num_leaves=76
num_cat=20
split_feature=4 1 6 1 0 5 6 6 1 6 0 2 0 6 5 6 0 6 5 0 0 2 0 6 2 0 2 6 5 5 2 7 2 7 8 7 6 0 6 7 8 7 7 5 6 0 6 8 0 6 8 7 8 8 8 6 5 7 7 6 6 5 7 8 8 6 6 8 6 6 8 6 5 7 6
split_gain=1130.98 937.456 666.259 283.138 136.054 120.722 91.659 83.5374 79.0946 57.3369 51.8739 48.0011 45.002 36.652 36.539 36.2819 30.5045 32.498 29.0439 26.5887 24.7798 24.4185 23.4078 20.5068 19.9797 18.3259 17.5722 16.6424 17.9406 16.3361 15.7623 17.2792 15.209 12.0427 47.2017 18.4579 11.7171 11.2111 10.7486 9.341 9.25546 31.5325 11.0434 8.31088 8.28657 6.78758 8.10616 5.9307 5.32289 4.58593 5.93513 4.52566 10.735 5.88578 4.21258 4.17685 5.66011 4.01226 3.31734 4.72559 3.25099 5.16266 3.04406 2.71527 2.61544 2.63896 2.45132 2.15911 2.07308 1.85255 1.74494 1.72782 1.35987 0.658988 0.253182
threshold=1.0000000180025095e-35 0 25.500000000000004 1 2 5.5000000000000009 44.500000000000007 14.500000000000002 3 28.500000000000004 4 5 6 10.500000000000002 2.5000000000000004 155.50000000000003 7 57.500000000000007 2.5000000000000004 8 9 10 11 2.5000000000000004 12 13 14 27.500000000000004 1.5000000000000002 1.5000000000000002 15 3.5000000000000004 16 1.5000000000000002 1.5000000000000002 3.5000000000000004 10.500000000000002 17 2.5000000000000004 4.5000000000000009 3.5000000000000004 2.5000000000000004 3.5000000000000004 1.5000000000000002 18.500000000000004 18 32.500000000000007 4.5000000000000009 19 1.5000000000000002 5.5000000000000009 3.5000000000000004 1.0000000180025095e-35 4.5000000000000009 2.5000000000000004 55.500000000000007 7.5000000000000009 5.5000000000000009 2.5000000000000004 7.5000000000000009 189.50000000000003 3.5000000000000004 2.5000000000000004 2.5000000000000004 2.5000000000000004 4.5000000000000009 47.500000000000007 4.5000000000000009 72.500000000000014 5.5000000000000009 5.5000000000000009 10.500000000000002 4.5000000000000009 1.5000000000000002 253.50000000000003
decision_type=2 1 2 1 1 2 2 2 1 2 1 1 1 2 2 2 1 2 2 1 1 1 1 2 1 1 1 2 2 2 1 2 1 2 2 2 2 1 2 2 2 2 2 2 2 1 2 2 1 2 2 2 2 2 2 2 2 2 2 2 2 2 2 2 2 2 2 2 2 2 2 2 2 2 2
left_child=1 2 4 49 13 6 11 30 18 20 29 19 -13 51 21 -12 33 26 25 -4 23 -9 -16 57 54 39 -18 -3 -29 -8 31 -6 -19 34 -7 -35 63 -38 -32 47 42 -42 -27 -25 -26 46 -11 -5 62 73 58 53 -53 -1 -15 56 -47 -10 64 67 61 -50 68 -22 65 -51 -48 -60 -20 -52 -57 -61 -64 -2 -62
right_child=3 27 5 8 7 16 10 14 9 45 15 12 -14 24 22 -17 17 32 48 -21 36 -23 -24 43 44 40 -28 28 -30 -31 38 -33 -34 35 -36 -37 37 -39 -40 -41 41 -43 -44 -45 -46 55 66 -49 60 50 69 52 -54 -55 -56 70 -58 -59 59 71 74 -63 72 -65 -66 -67 -68 -69 -70 -71 -72 -73 -74 -75 -76
leaf_value=0.11955599191943807 0.18055518749259455 0.26494874815718306 -0.001590880401399206 0.054134156964178698 0.25019159595211854 0.021191118705487746 0.033098098881543435 0.09926368416904785 0.047205008086267701 0.11253560709381892 0.0043130256714407579 0.079263692053171242 0.031359781156975235 0.046011076199740847 0.13795397428226788 0.059910814115464818 -0.020908238777866035 -0.022271385445818512 -0.056784573729883686 0.030010835783743646 0.030423496664408828 0.042193878738204099 0.041828406678901406 -0.03476264578927326 0.1157469006555389 0.0047284369253123596 0.083967544442999267 0.14500364628763729 0.30292329741538876 0.083036574094908444 0.11379237979614856 0.089162632934099553 0.03792043190989923 0.066540395455093396 0.30271208505850677 0.17054777729155021 -0.015995940036183775 0.052715506410464685 0.073956956648554575 -0.064799721322356785 0.20822839466779267 4.6102555247786639e-05 -0.056366575589654438 -0.085529924098092736 0.088093252996709615 -0.055258032907036826 -0.057859824777655437 0.13557972763522383 -0.028485049399442599 0.10852243575995268 0.10250806585519319 0.10484166990315186 0.19461073392157774 0.18915550527255598 -0.020283752621969464 -0.069146447075896622 0.049103778914742421 -0.04170826996676149 0.057397515422036152 -0.028133905252252102 -0.012375303802514767 -0.088773268469435257 0.019798681469847385 0.091403301145757787 0.15019951368338427 0.059594024781306043 0.0017690199856056966 0.11521859603783302 0.041124685572388769 0.18790506412742272 -0.051070939692716713 0.038946123663119565 0.11352593599786753 0.11516392663879323 0.022202332278217569
leaf_weight=100.62748596817255 8.8040920346975344 174.0788654088974 702.98092143237591 86.397346816956997 23.16384968906641 9.9497369825840014 357.00683653354645 80.615775771439075 35.389313835650682 4.2612446360290077 4426.2096400037408 210.34642001986504 3191.639201566577 15.800510071218012 66.333915926516056 119.5830387994647 19.21426372975111 52.987721674144268 4.2387832887470704 419.35952840745449 14.898241125047209 2141.6189321354032 88.364571094512939 691.75733750686049 243.22111658006907 104.23855007439852 211.05286986380816 35.321657583117485 10.18835763633251 80.257103092968464 75.006999216973782 11.370261430740355 134.41610203683376 45.79285155236721 14.456905655562876 28.603643342852592 108.01783901080489 18.706212822347879 1180.449749134481 5.2253458574414244 7.8779901564121237 40.313644133508205 40.238335389643908 33.411356192082167 242.68264208734035 848.97768548503518 10.639354128390552 9.7162057012319547 23.515829153358936 28.897673368453979 11.519943565130236 23.333590991795063 53.500164307653904 17.547052346169949 21.40107649564743 436.88869579508901 4.5062107369303694 5.1061783209443083 22.492762804031372 5.9010564386844617 3.2798363119363776 40.687505107372999 3.4250757917761803 16.756263017654419 9.6322296038269979 25.774169396609068 16.770926807075739 11.891145892441271 2.7688105665147305 8.2066549956798536 77.993619702756405 7.7634354829788208 2.900267731398344 16.110812112689018 3.282143872231245
leaf_count=587 50 560 9715 989 187 99 4711 882 492 64 65961 2336 43512 159 635 1751 220 694 85 5567 204 25567 891 12550 2039 1585 2253 208 53 908 471 100 1650 454 131 277 1857 247 10760 99 106 589 732 622 2486 16582 211 88 422 222 67 144 293 94 221 9004 77 69 204 76 54 821 65 214 80 251 337 98 50 61 1550 88 55 106 51
internal_value=0 0.383939 0.351348 -0.303639 0.676669 0.20933 0.183705 0.592509 -0.379695 -0.449037 0.0901185 0.286738 0.345676 1.08171 0.482546 0.0577575 0.679766 0.515609 0.0471678 0.103937 -0.257214 0.449442 0.952147 -0.329128 0.955023 0.196754 0.778905 2.38706 1.8611 0.41486 0.799185 1.56993 0.217042 1.19063 1.93297 1.0826 0.104431 -0.0264495 0.758221 0.514575 0.00116387 0.376193 -0.125577 -0.372163 1.00089 -0.578574 -0.0117025 0.636789 -0.466409 0.962658 0.934133 1.47014 1.69046 1.31391 0.066104 -0.587302 -0.546502 0.352588 0.830858 0.607741 -0.532862 -0.67467 0.159414 0.645136 0.985713 0.869407 -0.225979 0.800852 -0.177945 1.45387 -0.665127 0.100343 0.724051 1.44347 0.0556856
internal_weight=0 14628.5 14408.9 2859.18 4385.04 10023.9 9507.38 3666.92 2702.19 2324.08 4983.06 4524.33 3401.99 718.114 2376.93 4545.79 516.474 417.671 378.106 1122.34 924.043 2222.23 154.698 765.664 523.105 294.007 230.267 219.589 45.51 437.264 1289.99 34.5341 187.404 98.8031 24.4066 74.3965 158.379 126.724 1255.46 101.339 192.669 48.1916 144.477 725.169 485.904 1400.04 31.6715 96.1136 84.0983 156.994 132.079 195.008 76.8338 118.175 37.2016 1368.37 853.484 40.4955 112.352 48.0484 70.7653 64.2033 13.3329 31.6545 64.3041 54.6718 27.4103 34.3839 7.00759 19.7266 514.882 13.6645 6.32534 24.9149 6.56198
internal_count=237750 186576 185755 51174 45516 140239 134461 39493 49871 44080 73331 61130 45848 6023 27975 67712 5778 4817 5791 15282 16255 26449 1526 13733 4905 4188 2473 821 261 5619 11518 287 2344 961 230 731 2522 2104 11231 1176 3012 695 2317 13172 4525 27825 612 1077 1603 1303 1147 1118 437 681 380 27213 16659 561 1019 466 1348 1243 255 418 553 473 548 302 135 128 10554 164 120 156 105
cat_boundaries=0 1 2 3 4 5 6 7 8 9 10 11 12 13 14 15 16 17 18 19 20
cat_threshold=9 16 883949656 2 78676033 5702772 77594697 3276800 43570219 59430534 12354 16909314 3299236 1049772 13671524 10248 11406656 3153961 67403777 16909444
shrinkage=0.1


Tree=5
num_leaves=76
num_cat=27
split_feature=4 1 6 1 5 6 0 0 1 6 2 6 0 0 0 5 2 5 6 6 6 2 6 0 2 2 5 0 6 0 0 2 6 2 7 0 5 2 6 7 2 7 5 8 7 7 8 6 2 0 7 6 8 8 2 0 8 5 0 6 7 6 5 6 6 8 7 7 6 6 8 6 6 6 7
split_gain=894.529 711.263 482.303 227.848 103.101 94.8179 81.2596 73.2627 68.7505 52.7181 49.9121 48.0732 46.012 44.2633 38.1402 30.5444 24.721 24.1416 23.4868 23.3591 22.9538 21.6067 20.9376 20.6875 20.18 18.4231 16.7382 15.8756 14.992 14.5428 14.0174 12.6752 12.5793 12.337 11.9089 11.7899 11.5795 9.77874 8.88217 8.03748 7.83002 7.44249 7.33382 7.08528 10.1709 8.52316 5.91606 5.09833 4.85726 4.70418 4.57367 3.64044 3.33524 3.19245 3.14936 11.8327 8.63503 4.23844 4.56705 3.50776 3.44093 3.04043 5.7205 2.2249 1.65494 2.32647 1.17801 4.39473 1.42335 1.23768 0.968194 0.916344 0.933573 0.699549 0.620422
threshold=1.0000000180025095e-35 0 25.500000000000004 1 1.5000000000000002 10.500000000000002 2 3 4 31.500000000000004 5 33.500000000000007 6 7 8 2.5000000000000004 9 2.5000000000000004 45.500000000000007 34.500000000000007 46.500000000000007 10 6.5000000000000009 11 12 13 6.5000000000000009 14 156.50000000000003 15 16 17 13.500000000000002 18 1.5000000000000002 19 1.5000000000000002 20 45.500000000000007 3.5000000000000004 21 4.5000000000000009 1.5000000000000002 3.5000000000000004 4.5000000000000009 2.5000000000000004 4.5000000000000009 11.500000000000002 22 23 1.5000000000000002 41.500000000000007 2.5000000000000004 3.5000000000000004 24 25 3.5000000000000004 1.5000000000000002 26 36.500000000000007 1.0000000180025095e-35 181.50000000000003 3.5000000000000004 62.500000000000007 1.5000000000000002 1.0000000180025095e-35 2.5000000000000004 4.5000000000000009 9.5000000000000018 5.5000000000000009 2.5000000000000004 3.5000000000000004 7.5000000000000009 3.5000000000000004 2.5000000000000004
decision_type=2 1 2 1 2 2 1 1 1 2 1 2 1 1 1 2 1 2 2 2 2 1 2 1 1 1 2 1 2 1 1 1 2 1 2 1 2 1 2 2 1 2 2 2 2 2 2 2 1 1 2 2 2 2 1 1 2 2 1 2 2 2 2 2 2 2 2 2 2 2 2 2 2 2 2
left_child=1 32 5 40 7 12 20 18 17 22 19 16 31 21 -13 24 -9 30 51 -8 37 27 29 52 -15 -22 -12 -7 -20 46 41 70 -1 -25 -31 -17 -33 -6 48 -40 66 50 -23 45 -45 -14 -10 64 -32 53 -5 -4 -24 63 55 56 -11 58 -56 -59 -57 62 -51 -19 -42 -66 68 71 69 73 -3 -68 -73 -2 -63
right_child=3 2 4 8 6 13 10 11 9 54 26 14 43 15 -16 35 -18 49 28 -21 25 42 23 33 -26 -27 -28 -29 -30 34 38 36 -34 -35 -36 -37 -38 -39 39 -41 47 -43 -44 44 -46 -47 -48 -49 -50 61 -52 -53 -54 -55 57 60 -58 59 -60 -61 -62 74 -64 -65 65 -67 67 -69 -70 -71 -72 72 -74 -75 -76
leaf_value=0.22484713084862379 0.06427468589159803 -0.01738031455856124 0.10719250096871097 0.080167431689178295 0.010451431816013792 0.053332932498397038 0.27793128828142599 -0.019827073568372499 -0.057439505155553197 -0.0012217321288759556 -0.0051868793291651033 -0.0010601554580518307 0.084116477845501303 -0.0037994374632948631 0.01483626995016883 0.11787336075598383 0.029432205552372782 0.0022176881262524015 0.040720512515798876 0.089745460812640343 -0.025375389642098879 0.041172349708020264 0.02200749352684999 0.014096280072446427 0.043075614626879276 0.047773965641313004 0.034724554792620731 0.10461067546205938 0.19612674375978681 -0.021088880051724108 -0.030765765049655915 0.053140530956072865 0.31453862647595587 -0.036928444383897446 0.053292596779628922 0.045813853018907766 0.12777014144303886 0.076273156192811664 -0.0027244888870959719 -0.064897642107202447 0.17284228337018681 -0.062458392810244956 0.083755609731047079 0.12925886525667976 0.079227645309257744 0.12083943499042714 0.032451436519815517 0.040618919383085067 0.029529969787985846 -0.024744366081206653 0.035952956539270851 0.17207535596478654 0.1073566906923253 -0.036143483596686142 0.0015240380172395623 0.018584961302743504 0.21581844700023634 -0.0084297118518988166 -0.057272585110247458 -0.10219200061597487 -0.072600286487806517 0.021741326904553285 -0.090145574947756657 0.099298139345597308 0.056701194789620768 0.12877211217881709 -0.017668038919789499 0.06913662168100701 0.012781135841607075 0.10291287090434231 -0.07186913061253028 0.04283395094947183 -0.0078059183498208617 0.025530033330571064 -0.026946849398678654
leaf_weight=151.87162932753563 21.824820108711723 6.2665113508701316 58.931770384311676 41.125317007303238 41.251835972070694 183.85547880083323 8.1679611429572088 103.84540629386902 37.493073020130396 2.8796483129262924 468.0482531376183 2458.9210919365287 246.23949562758207 101.84745612740517 3911.8171833828092 71.095511682331562 1809.0084548592567 4.1551317535340768 114.61611043661833 30.509108811616898 34.015940703451633 267.8631064966321 7.8373601436615017 49.793951585888863 2571.4980809912086 566.71858338266611 134.43008573353291 305.99260825663805 5.6727388501167288 29.843046769499779 8.3155700080096704 329.90340861678123 25.697947591543198 812.40299644321203 72.237997177988291 106.87905378639698 21.874661512672901 483.3675706461072 77.324433282017708 27.488439846783876 14.95803429186344 4.9319361373782149 48.364181272685528 200.93262953311205 58.904242768883705 96.337266728281975 8.3495976179838163 7.5948178693652144 79.504132002592087 22.439349979162216 59.91533263027668 14.213217079639433 12.625952221453188 4.8226539306342593 22.281614352017641 4.6869615763425854 3.9903980121016502 4.7203665859997264 1108.7767494805157 33.805113546550274 20.463146962225437 4.4619047529995424 36.1637012809515 4.6125533506274223 7.4086606204509726 51.06870161741972 9.4432695955038088 19.521945282816887 5.9574002251029006 8.4925296753644925 8.3449448421597463 7.4137548282742483 5.9501801580190659 8.2789501249790174 4.0295680612325668
leaf_count=413 155 53 562 431 486 1859 87 1405 624 55 6555 35885 1655 1179 56132 600 23102 83 1269 412 469 2581 99 877 28627 6944 1625 2646 50 477 128 2478 81 15274 1061 1005 143 5358 1174 559 76 99 397 1263 404 638 131 79 1151 413 646 143 147 92 449 94 71 94 23485 725 417 71 801 80 57 367 82 145 66 71 70 68 72 65 63
internal_value=0 0.335467 0.310503 -0.281943 0.189649 0.578675 0.409369 0.143819 -0.354591 -0.421787 0.117238 0.128845 0.857039 0.504726 0.0872313 0.439823 0.267992 0.0416138 0.736605 1.08216 0.569459 0.719117 -0.257349 -0.31565 0.414359 0.439689 0.0369997 0.869586 0.49606 0.0903135 0.173988 0.52225 2.26814 -0.338412 0.287634 0.842431 0.565279 0.727771 0.000790609 -0.194894 0.816002 0.444264 0.464639 1.03367 1.18264 0.947651 -0.335596 1.11801 0.233994 -0.439325 0.545583 1.21951 0.526749 0.145707 -0.565997 -0.0883908 0.600043 -0.573333 -0.566064 -0.912076 -0.401808 -0.505403 -0.659385 0.582276 1.33539 1.20748 0.440345 0.355522 0.608025 0.677046 -0.311543 0.0510895 0.213132 0.547827 -0.0176811
internal_weight=0 15047.3 14869.7 2779.39 10243.5 4626.2 1766.51 8477.03 2611.48 2232.19 641.155 8283.59 968.803 3657.4 6370.74 2851.32 1912.85 379.29 193.434 38.6771 1125.35 806.075 1030.58 882.66 2673.35 600.735 602.478 489.848 120.289 147.924 298.605 366.39 177.57 862.197 102.081 177.975 351.778 524.619 192.633 104.813 167.913 105.973 316.227 602.414 259.837 342.577 45.8427 81.0302 87.8197 80.6849 101.041 73.145 20.4633 13.5903 1201.6 32.0202 6.87005 1169.58 1131.06 38.5255 25.1501 67.0945 58.6031 8.76769 73.4354 58.4774 86.8828 42.3291 44.5537 38.5963 14.6115 22.8072 13.3639 30.1038 8.49147
internal_count=237750 186576 186082 51174 140484 45598 21936 118548 49871 44080 8679 116524 6704 38894 92017 31411 24507 5791 2024 499 13257 7483 18690 16397 29806 7413 8180 4505 1319 2293 4188 2744 494 16151 1538 1605 2621 5844 3012 1733 1303 1176 2978 3960 1667 2293 755 579 1279 1603 1077 705 246 255 25390 637 126 24753 23934 819 511 1348 1214 163 500 424 724 367 357 291 123 222 140 220 134
cat_boundaries=0 1 2 3 4 5 6 7 8 9 10 11 12 13 14 15 16 17 18 19 20 21 22 23 24 25 26 27
cat_threshold=4 16 95556769 67108936 2 8417690 17423489 95420489 1011748 5455988 4728835 67436608 4310052 9507316 83886080 8390400 1049772 6357632 1645568 132098 7574576 1 69824 16909444 8396948 131204 71565313
shrinkage=0.1


Tree=6
num_leaves=76
num_cat=24
split_feature=4 1 6 1 6 0 5 0 0 6 2 5 2 0 7 8 0 6 6 0 2 0 2 6 5 5 2 2 2 6 2 6 5 6 2 2 6 6 0 5 8 6 5 6 0 6 0 8 7 5 6 2 5 6 6 6 6 5 6 7 7 0 6 8 6 6 6 6 6 7 6 8 7 6 7
split_gain=712.952 563.118 370.145 189.83 100.229 76.2186 61.7248 56.8465 55.4085 48.2818 44.1867 41.5876 36.762 33.1103 28.3322 104.652 25.6991 25.6928 22.5049 21.4661 21.3696 20.7837 17.8048 16.2932 16.1612 15.4139 14.4871 13.7863 11.5686 11.0177 10.2775 9.07105 9.54531 8.64226 8.2738 7.90952 9.39946 12.8142 10.8708 7.77521 7.1788 6.67572 5.76724 18.0412 5.74165 5.66176 5.5715 5.33099 8.72396 7.59643 4.78523 4.74073 4.68594 6.99706 4.28234 4.25893 4.14243 5.17849 3.36244 3.2778 4.33121 3.10013 2.89934 2.85595 2.60455 2.24833 3.75569 2.18426 2.15449 2.10931 2.06549 1.84557 6.75631 1.75479 1.74565
threshold=1.0000000180025095e-35 0 19.500000000000004 1 41.500000000000007 2 2.5000000000000004 3 4 28.500000000000004 5 6.5000000000000009 6 7 1.0000000180025095e-35 1.5000000000000002 8 10.500000000000002 27.500000000000004 9 10 11 12 2.5000000000000004 2.5000000000000004 1.5000000000000002 13 14 15 10.500000000000002 16 27.500000000000004 1.5000000000000002 17.500000000000004 17 18 51.500000000000007 48.500000000000007 19 1.5000000000000002 4.5000000000000009 16.500000000000004 1.5000000000000002 8.5000000000000018 20 32.500000000000007 21 4.5000000000000009 1.5000000000000002 1.5000000000000002 18.500000000000004 22 1.5000000000000002 18.500000000000004 14.500000000000002 184.50000000000003 55.500000000000007 7.5000000000000009 253.50000000000003 5.5000000000000009 1.5000000000000002 23 40.500000000000007 1.0000000180025095e-35 12.500000000000002 47.500000000000007 62.500000000000007 7.5000000000000009 4.5000000000000009 3.5000000000000004 4.5000000000000009 5.5000000000000009 4.5000000000000009 39.500000000000007 1.0000000180025095e-35
decision_type=2 1 2 1 2 1 2 1 1 2 1 2 1 1 2 2 1 2 2 1 1 1 1 2 2 2 1 1 1 2 1 2 2 2 1 1 2 2 1 2 2 2 2 2 1 2 1 2 2 2 2 1 2 2 2 2 2 2 2 2 2 1 2 2 2 2 2 2 2 2 2 2 2 2 2
left_child=1 2 8 5 6 47 13 14 17 21 19 -12 52 20 15 -6 30 42 -15 -9 -4 23 -16 59 35 26 -19 -18 40 63 -8 -3 -33 -30 50 55 37 -37 -38 41 -14 -25 51 -44 45 -11 -27 48 62 69 -31 -1 53 -10 67 -7 57 61 64 60 -5 -46 70 -23 -26 73 -67 -49 -65 -50 -2 74 -73 -47 -58
right_child=3 31 4 9 7 24 16 10 12 44 11 -13 28 18 22 -17 27 25 -20 -21 -22 29 -24 39 58 46 -28 -29 33 34 -32 32 -34 -35 -36 36 38 -39 -40 -41 -42 -43 43 -45 56 65 -48 54 49 -51 -52 -53 -54 -55 -56 -57 71 -59 -60 -61 -62 -63 -64 68 -66 66 -68 -69 -70 -71 -72 72 -74 -75 -76
leaf_value=0.021147024123966313 0.10045525051082319 0.19609558653053874 0.048609713479228572 -0.010818689750085994 0.029306285923654814 -0.0545313298644736 0.03194323673357409 -0.029560939041841656 0.089746745734119171 0.088647544569067038 0.0096503086786316854 0.057464206795742948 -0.024968489392407946 0.044538917993505955 -0.035530957841362919 0.29759353468258032 0.0022489635593192481 0.0054939131856676206 0.025669655173502628 -0.0012607058861571077 0.01474909357818234 -0.010859099845801272 0.03506222163764635 -0.019252674264216847 0.033853763959825256 0.016940669024978119 0.060410718302010849 0.080940518989304919 0.043847787009791951 -0.018263015011072432 -0.033864110058922092 0.11193415216381758 0.21861070001871249 0.02215953354699509 -0.05457071114248141 0.025210924898873388 -0.032167695756167299 0.15875894562226706 0.023386334331878297 -0.082526392196892659 0.045113563444806055 -0.039882187611688075 0.17536846621693292 0.04271093451127974 -0.058077570588375454 -0.006210267131436591 0.10353131224717003 0.10061921124528175 0.062545443745662677 -0.065843888985919141 0.023126763087541958 0.087500106230630689 0.16853662940652547 0.20182105594491825 0.19042745907975467 0.053052107077951841 -0.04724372066389837 0.050407946819612859 0.040058815608065748 -0.039919695625328565 0.062792947679345082 -0.037824228320841508 0.16519468796928882 0.10637150158504059 -0.053249011667293282 0.053916377845169922 -0.036825135703177241 0.02970584733054232 0.046916592490441666 0.02523871685072401 0.05809462076308182 0.023895169472988365 -0.058375867759043722 -0.088677764425602823 -0.067253666235266588
leaf_weight=37.058403462171555 37.120559491217136 190.00312215089798 195.77278775721788 11.027461986988781 59.966071389615536 28.953204516321421 150.65934300422668 358.86483900994062 65.582127712666988 4.8670661561191109 3903.7221427112818 189.86598166078329 49.68427500128746 1054.9077713340521 31.849943205714226 18.306975029408932 35.03142099827528 65.450964614748955 1593.0486707910895 990.75299330428243 2645.1336555629969 4.7496222741901866 508.60686883330345 285.54230086877942 2.9648953080177298 27.907415024936199 881.44173623621464 348.90886029601097 1023.6092986240983 42.558345597237349 20.262204207479954 39.436543166637421 12.476549014449118 227.91964060813189 14.5067674331367 123.69449555873871 60.516489692032337 6.6933137327432624 59.088666688650846 29.827073737978935 19.548734039068222 356.63000120595098 26.580081708729267 17.618359602987766 396.50705129280686 4.6066628359258193 101.86897219717503 38.758921064436436 55.722338110208511 5.0360532663762561 77.184678494930267 499.13081846386194 15.610014006495474 6.0631424859166136 5.3072749041020861 3.3884991519153109 63.449629098176956 4.4600954055786124 3.7670301795005789 4.956597462296485 25.734911799430847 373.94003715366125 5.3741326145827761 10.566614866256716 67.124338615685701 7.1910635270178345 9.3000506237149221 6.0488096401095381 19.917170040309429 23.420802850276232 24.947483759373426 11.386545810848473 59.335619073361158 5.3728233836591244 326.10157584026456
leaf_count=244 226 560 2384 179 708 433 1581 5275 567 64 56762 2041 493 11664 419 171 354 645 20485 14399 33718 70 6021 5314 52 229 8180 3301 8985 721 230 208 53 2522 261 1616 987 89 797 615 184 7026 134 103 8571 96 756 223 449 73 1313 3031 109 60 51 50 1461 77 56 68 309 8011 59 118 1424 143 194 56 261 223 230 217 1333 115 7543
internal_value=0 0.29451 0.269416 -0.261806 0.190966 0.256063 0.282088 0.100086 0.579973 -0.395619 0.0668352 0.118525 0.421852 0.249869 0.384743 0.950174 0.599789 0.707184 0.33076 -0.0896392 0.17261 -0.217631 0.308355 -0.289947 -0.0272145 0.618721 0.573198 0.740232 0.372898 0.0980709 0.225661 1.77637 1.41219 0.396027 -0.0280422 0.0812846 0.141906 0.332226 -0.0548404 -0.331706 -0.0421875 -0.307535 0.882108 1.24604 -0.522589 -0.00413671 0.943946 0.73177 0.665466 0.442201 0.0774536 0.849846 1.03815 1.01879 1.05859 -0.323146 -0.531397 -0.489129 -0.441161 0.306856 0.410102 -0.495524 0.933605 0.593178 -0.4914 -0.195706 0.0356362 0.919037 0.702495 0.51958 0.8462 -0.612864 -0.449814 -0.546425 -0.641238
internal_weight=0 15412.7 15170.7 2707.65 12105.7 557.927 6043.72 6061.94 3065.07 2149.72 5443.21 4093.59 1408.02 5488.86 618.73 78.273 554.862 1657.06 2647.96 1349.62 2840.91 883.202 540.457 713.718 356.191 1076.67 946.893 383.94 1320.76 169.483 170.922 241.916 51.9131 1251.53 134.25 282.335 249.993 130.388 119.605 671.999 69.233 642.172 580.388 44.1984 1266.52 31.3377 129.776 201.736 151.621 84.1792 119.743 536.189 87.2553 71.6453 50.115 32.3417 1235.18 774.907 73.8563 41.719 36.7624 770.447 67.4422 35.2334 70.0892 26.4706 16.4911 44.8077 30.4838 79.1431 62.068 460.273 70.7222 9.97949 389.551
internal_count=237750 186576 185755 51174 159513 7094 73717 85796 26242 44080 78477 58803 12920 68251 7319 879 5466 13322 32149 19674 36102 16255 6440 13511 5504 9810 8825 3655 12184 2744 1811 821 261 11507 2295 3972 3489 1705 1784 12955 677 12340 3512 237 27825 612 985 1590 1260 745 2034 3275 736 627 330 483 27213 16659 1532 556 488 16582 515 449 1476 548 337 279 379 672 456 10554 1550 211 9004
cat_boundaries=0 1 2 3 4 5 6 7 8 9 10 11 12 13 14 15 16 17 18 19 20 21 22 23 24
cat_threshold=9 18 1048588 82870337 892469375 3608628 8925570 189513766 109592613 17391622 10492698 59414150 14320756 644326 1089012 1131056 307457 3936257 106186 16781442 67403777 67108897 16271072 2642978
shrinkage=0.1


Tree=7
num_leaves=76
num_cat=26
split_feature=4 1 6 1 5 0 2 0 0 0 6 2 2 2 6 6 6 5 0 6 2 2 8 6 0 6 0 2 6 5 5 6 5 6 0 6 6 2 0 2 2 8 7 6 7 2 7 8 7 6 8 8 5 2 0 5 0 6 6 0 7 6 7 8 7 6 6 7 6 5 6 6 7 7 7
split_gain=571.298 468.468 275.994 160.329 66.4336 65.8912 69.4659 58.2197 56.6606 49.1759 43.9051 43.1338 42.4825 36.5872 33.9423 29.8677 26.5961 19.0804 18.7047 19.9576 16.837 16.7186 16.2622 15.8059 15.7602 16.3595 18.9664 15.0768 13.8821 13.592 12.7644 12.6657 12.2136 10.1739 8.76037 8.69638 7.68209 7.569 7.67499 6.52697 6.49306 8.131 30.0766 8.39379 6.08728 5.01454 5.75151 6.63521 4.83338 4.07752 11.0438 4.02701 3.9237 3.5517 9.93706 4.62815 3.94246 3.51327 3.30306 3.16233 5.61625 3.10709 3.04841 3.94011 3.03183 3.00288 2.74796 2.70128 2.63553 2.55225 7.45363 2.24416 2.22289 1.94295 0.657768
threshold=1.0000000180025095e-35 0 25.500000000000004 1 1.5000000000000002 2 3 4 5 6 31.500000000000004 7 8 9 52.500000000000007 14.500000000000002 12.500000000000002 1.5000000000000002 10 68.500000000000014 11 12 5.5000000000000009 44.500000000000007 13 13.500000000000002 14 15 17.500000000000004 2.5000000000000004 4.5000000000000009 34.500000000000007 6.5000000000000009 156.50000000000003 16 16.500000000000004 5.5000000000000009 17 18 19 20 3.5000000000000004 2.5000000000000004 51.500000000000007 1.5000000000000002 21 1.0000000180025095e-35 1.0000000180025095e-35 4.5000000000000009 66.500000000000014 2.5000000000000004 3.5000000000000004 1.5000000000000002 22 23 1.5000000000000002 24 36.500000000000007 26.500000000000004 25 2.5000000000000004 17.500000000000004 1.0000000180025095e-35 5.5000000000000009 4.5000000000000009 17.500000000000004 12.500000000000002 1.0000000180025095e-35 6.5000000000000009 3.5000000000000004 181.50000000000003 47.500000000000007 3.5000000000000004 3.5000000000000004 4.5000000000000009
decision_type=2 1 2 1 2 1 1 1 1 1 2 1 1 1 2 2 2 2 1 2 1 1 2 2 1 2 1 1 2 2 2 2 2 2 1 2 2 1 1 1 1 2 2 2 2 1 2 2 2 2 2 2 2 1 1 2 1 2 2 1 2 2 2 2 2 2 2 2 2 2 2 2 2 2 2
left_child=1 65 5 7 9 11 16 45 13 23 24 22 34 31 -14 30 36 -17 21 -20 35 -10 28 51 58 26 39 -15 -3 40 -8 -6 -18 -25 -11 -13 -7 38 -27 -26 49 43 -43 -42 -28 61 -47 -48 -49 73 -51 -4 -39 54 -12 56 67 -57 74 60 -31 66 -56 -64 -22 -1 68 -55 -2 72 -71 -58 -61 -9 -5
right_child=3 2 4 10 8 6 15 29 18 12 53 20 14 27 -16 17 32 -19 19 -21 64 -23 -24 33 25 37 44 -29 -30 59 -32 -33 -34 -35 -36 -37 -38 52 -40 -41 41 42 -44 -45 -46 46 47 48 -50 50 -52 -53 -54 55 62 57 71 -59 -60 69 -62 -63 63 -65 -66 -67 -68 -69 -70 70 -72 -73 -74 -75 -76
leaf_value=0.1830955535664191 0.026916215496117054 0.14335636815165156 0.11873540637360443 0.058362113967404587 0.19809749042028088 0.20599074059113442 0.046315472726435762 -0.082613844645054668 -0.013655474174903023 0.00022464849357326134 0.059379697157896608 0.085630085611016746 0.016087343418587492 0.011009580421126004 0.002771533226428537 0.02737420042459603 0.064906615216076033 0.053329482298568022 0.044665181486599717 0.0093952300874742666 -0.011900571080241349 0.072483755511560569 0.20944734915978583 0.03189107326616996 -0.040279707930710659 0.047425366668995182 -0.053055735641654583 -0.022350026349543577 0.07689607139505733 -0.043770473579807734 0.11407597702769885 0.071454429520551879 0.17609086172333832 0.15095828299224248 -0.042082918265794925 0.034365469008369134 0.12086554130855098 -0.034744428370251483 -0.024826505228787404 0.0300056100959477 0.022700544294247088 0.18653484746292781 0.011615102030534109 -0.019528180772058618 -0.014090766560140709 0.14456654580149442 -0.024986945988673639 0.069607954258341084 0.1280641864098192 0.089653556420631941 -0.09086947825046171 0.068995302017658522 -0.079066462294922854 -0.076418671257618642 0.022929923461093512 -0.0059480679082099808 -0.046517013152087214 -0.10115798272823631 -0.00093286168936651352 -0.0046213384564416701 0.12171801659845756 0.078928548839243468 -0.08206187040469054 0.032944599057993011 -0.085326564913512648 0.24330204946253653 -0.037121246012288694 0.017097254758178859 0.070329595050380139 -0.084397814214409395 0.029976874801746118 -0.056605704592615783 -0.070470023773475138 -0.0069847338816045384 0.10869300110042404
leaf_weight=162.44587509334087 70.220607858151197 85.784259147942066 40.579094149172306 13.861829102039342 10.413142517209051 15.559832513332365 1589.2494695261121 14.963243469595914 27.659052088856697 76.074426531791687 6.0130676031112671 72.688792422413826 5188.853299036622 429.38903930783272 3033.7798382416368 2443.6809710711241 194.20322950929403 321.09698371589184 645.32716228440404 214.24226964265108 21.910226888954643 321.61875209212303 24.149725586175919 126.13232272863388 6.627992607653141 17.102452877908945 57.782057780772448 184.69578030332923 56.388109050691128 3.0931782610714436 27.804689176380634 33.449038788676262 9.8593273460865003 6.725357472896575 175.34510194510221 64.030537754297256 65.437280580401421 585.67682233825326 21.843962322920561 119.94491513818502 96.474731303751469 10.984952449798582 55.547984663397074 90.036375813186169 129.70945607870817 18.283096130937338 5.2480104304850093 57.628976073116064 21.634987007826567 6.3878851085901243 5.2658774964511395 37.387459225952625 20.398695189505816 2.6398898065090206 4.5009043514728608 4.5839030221104613 438.63529268652201 29.700633160769939 6.9009843394160262 17.85197572037578 3.4154600575566292 16.838541317731142 16.69278006255627 3.014222800731658 6.769262693822383 19.581543058156967 4.6292109191417685 19.449557062238455 17.481431178748608 34.013363428413868 6.2782784961163989 564.15030777454376 6.2822101376950732 4.5643907040357581 6.3638992346823207
leaf_count=439 490 401 332 161 87 75 12019 222 310 1077 105 381 68353 5628 44543 26140 1802 2923 7152 2580 160 3231 120 1309 111 299 1105 2536 393 59 160 412 52 50 2551 484 436 11789 405 1919 1261 118 713 1397 2288 111 51 429 113 103 80 333 452 55 93 94 10036 725 85 347 63 178 377 62 52 55 57 394 161 844 93 13449 126 78 76
internal_value=0 0.259501 0.23992 -0.242917 0.148356 0.433617 0.399883 0.226784 0.319464 0.111544 -0.37061 0.867492 0.0990914 0.0776914 0.111618 0.366592 0.87899 0.304068 0.446549 0.354832 0.431364 0.654538 1.24753 0.577307 -0.219197 -0.240183 -0.0552741 0.00759405 1.17718 -0.0250216 0.475504 0.860784 0.71111 0.390011 -0.298087 0.578447 1.39531 -0.333709 0.103585 0.233987 0.0723182 0.126016 0.428298 0.0231962 -0.249911 0.629119 0.844619 0.797977 0.869602 -0.299819 0.0734747 0.960592 -0.357747 -0.510756 -0.0444651 -0.518695 -0.510489 -0.889576 0.435496 -0.414112 0.204631 0.367462 -0.338992 -0.637299 -0.235782 1.80978 0.322273 0.0216008 0.36265 -0.442444 -0.662815 -0.517281 -0.238838 -0.661377 0.785731
internal_weight=0 15732.3 15550.3 2642.72 10551.7 4998.61 4666.89 567.125 1866.79 8684.88 2075.59 331.721 8474.05 657.947 8222.63 4381.83 285.06 2764.78 1208.85 859.569 165.399 349.278 166.322 210.824 986.213 959.086 314.064 614.085 142.172 355.16 1617.05 43.8622 204.063 132.858 251.42 136.719 80.9971 645.022 38.9464 126.573 284.225 253.044 66.5329 186.511 187.492 211.965 102.795 84.512 79.264 31.1814 11.6538 77.9666 606.076 1089.38 30.221 1059.16 1024.88 34.2845 27.1267 70.9345 6.50864 109.17 24.2079 19.707 28.6795 182.027 92.3312 22.0894 87.702 64.4258 40.2916 1002.79 24.1342 19.5276 20.2257
internal_count=237750 186576 186082 51174 140484 45598 43607 7094 21936 118548 44080 1991 116524 8663 112896 41242 2365 29063 13273 9732 1077 3541 914 2024 18690 18368 5423 8164 794 5504 12179 499 1854 1359 3628 865 511 12945 704 2030 3972 3489 831 2658 3393 1590 704 593 542 483 183 665 12241 25390 637 24753 23934 819 322 1532 122 886 532 439 212 494 708 449 651 1410 937 23485 473 300 237
cat_boundaries=0 1 2 3 4 5 6 7 8 9 10 11 12 13 14 15 16 17 18 19 20 21 22 23 24 25 26
cat_threshold=4 18 2097240 8403210 1048588 38649934 67108936 1 196724 8417690 11665409 1313368 3772472 67110977 45629602 1573381 18875428 1645568 33701922 164672 106186 1 8396948 1048708 71565313 16909312
shrinkage=0.1


Tree=8
num_leaves=76
num_cat=26
split_feature=4 1 6 1 5 6 0 0 6 0 0 2 2 2 2 6 6 0 2 6 2 2 6 2 0 2 6 2 5 6 2 0 5 6 0 7 6 5 3 8 6 6 6 8 8 8 7 5 0 2 0 6 8 6 8 6 2 7 8 7 6 6 6 7 5 8 6 6 8 6 8 6 6 5 8
split_gain=457.801 391.567 215.436 134.606 54.4852 52.0914 44.9666 39.8404 39.5037 38.4471 37.7842 36.4202 28.0812 24.5338 24.287 22.4427 21.6123 21.4021 25.9496 20.3607 15.6749 14.2632 14.0442 13.8636 13.7702 13.0979 11.6825 11.5694 11.4878 10.2531 10.0986 14.1471 9.52835 8.99285 8.95869 7.58561 7.52742 7.09977 6.51742 6.49897 5.74139 5.54826 5.53658 5.35886 5.06805 4.59534 6.72903 5.09249 3.99523 10.4461 7.76217 5.60644 4.79889 4.38021 4.27092 3.5916 3.53943 3.95663 4.99634 3.50908 3.21279 2.96675 2.76415 5.32044 2.93115 3.70461 3.44492 2.27347 3.71993 2.22789 2.18257 2.49952 2.02756 1.7009 1.46776
threshold=1.0000000180025095e-35 0 28.500000000000004 1 1.5000000000000002 13.500000000000002 2 3 31.500000000000004 4 5 6 7 8 9 218.50000000000003 45.500000000000007 10 11 29.500000000000004 12 13 6.5000000000000009 14 15 16 45.500000000000007 17 2.5000000000000004 125.50000000000001 18 19 1.5000000000000002 2.5000000000000004 20 1.5000000000000002 156.50000000000003 1.5000000000000002 21 2.5000000000000004 8.5000000000000018 8.5000000000000018 26.500000000000004 4.5000000000000009 3.5000000000000004 4.5000000000000009 1.5000000000000002 1.5000000000000002 22 23 24 54.500000000000007 1.0000000180025095e-35 33.500000000000007 1.0000000180025095e-35 22.500000000000004 25 1.0000000180025095e-35 1.0000000180025095e-35 4.5000000000000009 62.500000000000007 62.500000000000007 165.50000000000003 1.5000000000000002 3.5000000000000004 1.0000000180025095e-35 19.500000000000004 6.5000000000000009 1.0000000180025095e-35 36.500000000000007 4.5000000000000009 9.5000000000000018 12.500000000000002 4.5000000000000009 1.5000000000000002
decision_type=2 1 2 1 2 2 1 1 2 1 1 1 1 1 1 2 2 1 1 2 1 1 2 1 1 1 2 1 2 2 1 1 2 2 1 2 2 2 1 2 2 2 2 2 2 2 2 2 1 1 1 2 2 2 2 2 1 2 2 2 2 2 2 2 2 2 2 2 2 2 2 2 2 2 2
left_child=1 -1 5 6 10 9 56 25 22 20 26 15 19 39 -13 -12 -14 21 32 -9 72 42 27 -20 55 61 44 34 40 -27 31 -26 -19 -15 43 -36 -28 -32 -23 -11 -8 -22 -7 -5 -4 46 -42 -47 53 50 51 -50 -52 54 -10 -24 67 -58 -59 -60 69 -6 64 -64 66 -66 -30 68 -2 -51 71 -69 -3 -65 -70
right_child=3 2 4 8 7 17 28 12 48 13 11 14 16 33 -16 -17 -18 18 23 -21 41 38 24 -25 30 29 36 -29 62 -31 37 -33 -34 -35 35 -37 -38 -39 -40 -41 45 -43 -44 -45 -46 47 -48 -49 49 60 52 -53 -54 -55 -56 -57 57 58 59 -61 -62 -63 63 73 65 -67 -68 70 74 -71 -72 -73 -74 -75 -76
leaf_value=0.16578637446998201 0.076969670274989119 0.087569793056051642 0.10631383753182051 -0.036628015076235337 -0.007077095090394162 0.00055696311923926337 0.1015202515748037 0.11929059739204471 0.066882491200531885 0.068423880138074808 -0.0057967017835755773 0.0089932402630773494 0.047502219831221187 0.064045838535096128 0.031051535332374442 0.15288896233610885 0.017586432262690719 0.05499088899211068 -0.008593734886484395 -0.0057238858161522514 0.048417305074994123 0.046057689375076871 0.13999440080810402 0.025332047123425988 0.053207348793322451 0.061646308219156731 0.026984136890470661 -0.047293761412009291 0.065889002975330221 0.1508799225412028 -0.028736845442896865 -0.030098044689011283 0.11379020865772674 0.035587675485931593 -0.0071043619143815132 0.060356344039285574 0.12498257195337872 -0.080051391843126374 0.11691668848620991 0.13566933190237679 0.020379311285032186 -0.03565525214936658 -0.095331167731652108 0.04479374630098442 0.052299488063561009 0.073767492730399023 -0.012537468667134198 -0.029437944402822148 0.13791765176328138 -0.052589219218150622 0.072977968571537988 0.00031149375607742217 -0.048245510731869695 -0.060981853020710408 -0.035505560785064963 0.03536751717067993 0.1204364708600735 -0.023264997566329205 0.059783656140894974 0.10815105778204355 -0.055728911920509529 -0.091602576193039104 0.083687763156663347 -0.083648723723333943 -0.0036094142967381345 -0.083649725651199811 -0.035061028440648179 0.082908995380308548 -0.015145332905875145 -0.033890603715250642 0.097244995276837276 0.021066774524678537 0.11662287659412461 0.00415345163855945 0.021816828702527456
leaf_weight=179.02353824675083 10.19170333445072 283.70320356637239 41.366989128291607 34.773950889706612 14.524661153554918 41.02470189332962 5.2115456722676745 12.452901825308798 3.9840306118130711 26.289164885878563 1835.1138311512768 5375.8905130699277 397.09420561045408 123.87997478246689 545.5643153488636 7.956995226442813 619.11989573389292 122.15980195254087 125.67106926441193 411.52249797433615 12.332956530153753 895.29194169491529 5.9905846938490868 3119.0027296245098 29.213420141488314 306.78304957598448 128.22902564704418 21.124922692775726 3.0902264751493957 13.029224425554274 715.53520908951759 32.084794763475657 36.824796311557293 1171.150192335248 22.554677277803421 60.815195642411709 7.4738264307379714 27.403962425887585 12.627073928713797 44.902218580245972 101.45953322947025 18.087634682655334 6.055201679468154 9.5276018679141981 35.690202318131924 16.643539752811197 156.67689392343163 5.9311508275568476 8.6561745926737768 87.459028191864491 2.9689324200153377 4.2766822911798945 19.432784166187048 440.34723835811019 22.244679760187864 7.9477593377232552 19.857533156871796 5.1519766189157954 60.393210157752037 23.150786396116018 158.73598310723901 4.9250258803367606 4.2471841350197774 3.8068050257861614 7.4645022675395003 26.164291348308325 19.685990646481514 8.6687835752964002 12.961912006139753 291.3705365024507 8.6032119765877706 23.53799245506525 37.4404092207551 3.911679569631815 48.33414538577199
leaf_count=494 65 1545 326 607 166 404 66 128 93 165 25937 73954 4239 623 7383 98 7715 1164 1416 5293 66 7951 58 32992 500 2956 1311 343 50 117 14511 610 266 8599 371 830 50 633 130 257 1310 134 70 142 310 203 2315 78 162 2055 70 98 454 10917 532 85 111 51 429 113 4033 61 63 76 180 711 401 75 89 6976 67 254 256 51 336
internal_value=0 0.229203 0.211765 -0.224521 0.119823 0.359696 0.200768 0.278005 -0.345747 0.507255 0.0845082 0.0726045 0.200247 0.419736 0.110794 -0.0500195 0.290261 0.301438 0.261202 -0.0173901 0.810323 0.437114 -0.201671 0.239935 -0.25302 0.5835 0.490226 0.080478 -0.0235948 0.637534 -0.270128 0.116584 0.651633 0.380635 0.196496 0.37762 0.332562 -0.30327 0.466574 0.984866 0.0641031 -0.00845681 -0.111773 -0.15167 0.822868 0.0429045 0.00429062 0.465534 -0.482773 -0.39091 0.137533 0.557142 -0.208416 -0.573859 -0.180681 0.519322 0.544739 0.72362 0.684436 0.743074 -0.427707 -0.214326 -0.389382 0.0443035 -0.480552 -0.665007 -0.191692 0.322691 0.238148 -0.383346 0.53873 0.397077 0.885594 -0.437786 0.13883
internal_weight=0 16012.2 15833.2 2581.59 9756.74 6076.44 575.145 1779.45 2006.45 1717.79 7977.29 7764.53 1440.19 1366.22 5921.45 1843.07 1016.21 4358.66 3403.66 423.975 351.564 954.999 966.972 3244.67 818.176 339.262 212.76 148.796 354.293 319.812 804.237 61.2982 158.985 1295.03 127.671 83.3699 135.703 742.939 907.919 71.1914 285.923 30.4206 47.0799 44.3016 77.0572 280.711 258.136 22.5747 1039.48 572.9 35.3346 12.9329 22.4017 466.576 26.2287 13.9383 220.851 108.554 88.696 83.544 537.566 19.4497 68.3707 11.9657 56.405 33.6288 22.7762 112.298 71.4878 378.83 40.81 32.2068 321.144 7.71848 61.2961
internal_count=237750 186576 186082 51174 130044 56038 7094 20675 44080 11645 109369 107372 17375 9644 81337 26035 11954 44393 35838 5421 2001 8555 18690 34408 16397 3300 1997 2293 5504 3073 16254 1110 1430 9222 1950 1201 1361 15144 8081 422 3972 200 474 749 636 3906 3625 281 25390 13848 784 260 524 11542 625 143 1590 704 593 542 13064 227 1532 190 1342 891 451 886 490 9031 396 329 1801 127 425
cat_boundaries=0 1 2 3 4 5 6 7 8 9 10 11 12 13 14 15 16 17 18 19 20 21 22 23 24 25 26
cat_threshold=4 18 1048588 11665409 2228316 71303240 1511540 7703620 10506 6849537 95723593 8401282 1312859 1180548 1131572 67108864 1605688 4472849 10034178 42090535 1794 2 16794658 8430484 1048709 1
shrinkage=0.1


Tree=9
num_leaves=76
num_cat=26
split_feature=4 1 6 1 0 2 6 0 1 6 0 2 0 6 0 0 5 2 7 8 5 8 6 8 0 2 6 0 7 2 6 6 2 7 5 6 5 0 2 6 5 6 7 7 6 2 7 2 8 0 2 0 6 7 8 5 6 2 6 7 8 7 7 5 8 6 5 7 6 5 7 2 7 6 6
split_gain=368.3 336.638 169.94 113.288 57.4873 53.1235 40.4003 37.1684 36.831 35.3182 33.3992 32.8494 34.4369 24.5218 24.2959 22.101 21.0992 17.8299 16.4242 113.456 14.0866 13.2189 12.3157 12.0348 12.0327 14.7586 13.4915 12.5008 11.3477 11.0815 11.2129 14.7309 9.34598 8.80849 8.67921 8.48174 8.10083 7.82852 7.28225 6.91508 6.85184 5.64102 12.3782 5.20714 5.18552 4.75374 4.75071 4.71878 4.61579 4.38635 7.68046 5.37578 5.16014 4.63971 4.43212 4.25756 4.59228 3.85314 3.41405 2.85311 2.83328 2.74781 2.67079 4.13356 2.65525 6.1209 2.81994 2.25945 2.14348 2.07328 1.87245 1.69362 1.65874 1.64755 1.19123
threshold=1.0000000180025095e-35 0 19.500000000000004 1 2 3 40.500000000000007 4 5 31.500000000000004 6 7 8 56.500000000000007 9 10 2.5000000000000004 11 1.0000000180025095e-35 1.5000000000000002 5.5000000000000009 4.5000000000000009 2.5000000000000004 1.5000000000000002 12 13 2.5000000000000004 14 4.5000000000000009 15 108.50000000000001 24.500000000000004 16 3.5000000000000004 2.5000000000000004 13.500000000000002 3.5000000000000004 17 18 53.500000000000007 1.5000000000000002 12.500000000000002 2.5000000000000004 2.5000000000000004 12.500000000000002 19 1.0000000180025095e-35 20 3.5000000000000004 21 22 23 33.500000000000007 1.0000000180025095e-35 5.5000000000000009 1.5000000000000002 36.500000000000007 24 136.50000000000003 1.0000000180025095e-35 1.5000000000000002 3.5000000000000004 1.0000000180025095e-35 1.5000000000000002 1.0000000180025095e-35 140.50000000000003 3.5000000000000004 5.5000000000000009 153.50000000000003 4.5000000000000009 1.5000000000000002 25 1.5000000000000002 42.500000000000007 84.500000000000014
decision_type=2 1 2 1 1 1 2 1 1 2 1 1 1 2 1 1 2 1 2 2 2 2 2 2 1 1 2 1 2 1 2 2 1 2 2 2 2 1 1 2 2 2 2 2 2 1 2 1 2 1 1 1 2 2 2 2 2 1 2 2 2 2 2 2 2 2 2 2 2 2 2 1 2 2 2
left_child=1 -1 10 7 17 13 16 29 -8 24 21 12 44 20 -15 22 -7 37 19 -19 -6 28 -13 -20 26 41 67 35 59 30 31 -2 36 -14 39 -27 62 57 -17 48 45 -26 -43 -41 -12 -28 -29 64 -31 52 51 54 60 -53 -51 68 -57 -4 -36 -3 -11 -39 -9 -64 65 -34 -66 72 -52 -60 -54 -49 -5 -33 -72
right_child=3 2 4 9 5 6 8 32 -10 49 11 15 33 14 -16 38 -18 18 23 -21 -22 -23 -24 -25 25 27 40 46 -30 34 -32 73 47 -35 58 -37 -38 61 -40 43 -42 42 -44 -45 -46 -47 -48 71 -50 50 55 53 70 -55 -56 56 -58 -59 69 -61 -62 -63 63 -65 66 -67 -68 -69 -70 -71 74 -73 -74 -75 -76
leaf_value=0.1546725795684509 0.15938310399158834 0.099969902798598256 -0.017878905463977354 0.0022997393891837775 0.045567267460510263 0.013506002227537959 0.093471971172865043 0.097176450910720691 0.0022416947724961749 0.054690246903135536 0.04664417005814471 0.078764161245983622 0.13784604218857352 0.073508600013372102 -0.010810646190706374 -0.0036102390823079472 0.036751855983676376 0.0170379510700145 0.049907889707599136 0.18805486099443314 0.10911650528544883 0.17543660771785438 0.040126436298201965 0.025025697626593613 0.19602545692882864 0.01266528694018839 0.013868183723568267 -0.033209810425277729 0.15467858109659519 -0.0058867135168262363 0.20744311211329897 -0.085231634399367637 0.073644661422426219 0.079177215507092363 -0.075049989436534181 -0.03017084375515014 -0.059531861976941894 -0.068614279232237133 0.026138007485884625 -0.0085526420951348384 -0.081930050185617678 -0.044696884252272875 0.14189961537658591 -0.059088440183548023 -0.003573932704107826 -0.029250157177937903 0.055942785240730111 0.012508864357942124 0.04275873476071048 0.068307977118026164 -0.040650088725458833 0.046527493101602063 -0.085846324061632784 -0.048046224854991333 -0.046912805242081121 0.019210917826463482 -0.09942324905398521 0.040204795217469301 -0.041272183075476435 0.042036174641525731 -0.035151977440629381 -0.015486065512111484 0.065191155403736267 -0.0025230944544854398 0.02522190418163632 -0.041150461926989151 -0.036211079418645355 -0.032573482998225316 -0.083882229767888408 0.04751023781535188 -0.057133615590649625 -0.042114473898139916 0.050983338371424783 -0.0062167744343552831 -0.085858778742274919
leaf_weight=173.75244161486626 4.4496734887361553 11.67077900469303 13.260639101266859 9.6189924329519254 433.39719162136316 4574.9690624549985 33.644201323390007 25.995061542838812 5342.6295027770102 4.3640600629150859 36.765210621058941 87.452503755688667 80.466127634048462 32.527860261499882 151.55014587938786 92.434544645249844 426.41508035361767 156.44965977594256 235.58310136944056 50.688310422003269 37.683383695781231 22.58351543545723 1553.6068802326918 1133.9564023949206 4.2711806595325497 63.299186415970325 25.028328329324722 6.3571866601705542 16.358094915747643 67.623819395899773 3.6357351243495932 3.9179710596799833 25.741721741855148 45.415439069271088 33.115496143698692 165.75969352573156 4.5054252222180358 27.002357371151447 1370.5628202036023 45.510297656059265 23.550481792539358 5.5735171288251859 7.2747666090726852 36.539575546979904 44.852157667279243 570.34843314439058 38.558777678757906 7.4536364749073982 26.304616373032331 16.883352566510442 689.23165285587311 5.6455388665199306 53.926741991192102 24.744320679455996 3.3570343852043143 3.4606361910700825 22.032162599265575 19.781856872141361 5.3222220912575704 36.583541169762611 9.1753594912588579 16.026080295443535 104.44340143725276 9.7779392041265947 146.85319329798222 4.9435993693768969 7.0138393826782695 4.3857304826378813 11.61435456201434 3.511810727417469 128.85343458130956 8.9480851776897925 25.685130082070827 6.0665108226239681 21.29414976015687
leaf_count=494 66 54 141 165 5024 55185 162 158 75524 101 207 393 509 431 2095 857 3914 1636 2442 405 283 90 11711 11802 54 956 470 88 71 978 61 68 251 319 839 3359 101 336 11565 696 580 97 120 719 352 11943 509 101 326 364 17526 132 1417 609 70 73 617 205 112 174 227 195 723 125 1261 62 164 61 313 50 3362 117 288 116 579
internal_value=0 0.203092 0.187404 -0.207286 0.134296 0.107882 0.0901806 0.178928 0.0300788 -0.322125 0.386078 0.365947 0.755266 0.382157 0.0779347 0.337347 0.154949 0.307932 0.331385 0.595896 0.508712 0.984654 0.419765 0.293391 -0.18556 -0.0110747 -0.258458 -0.0788917 0.843055 -0.125191 0.470294 0.262721 0.384013 1.08889 -0.194792 -0.175662 0.587093 -0.15863 0.242455 -0.104668 -0.298685 0.680545 0.635725 -0.314984 0.172501 -0.276753 0.352081 0.214881 0.0804334 -0.455448 -0.396347 0.0145152 -0.617317 -0.224141 0.325596 -0.424775 -0.832015 0.182511 -0.606978 0.577932 -0.0442399 -0.404422 0.670607 0.594229 0.26406 0.544354 0.222058 0.297245 -0.41485 -0.0473607 -0.68504 -0.222347 0.381477 -0.421593 -0.617486
internal_weight=0 16258.1 16084.3 2525.97 12685.6 11032.8 10377.7 581.674 5376.27 1944.29 3398.75 3311.56 207.499 655.159 184.078 3104.06 5001.38 1652.75 1576.68 207.138 471.081 87.1959 1641.06 1369.54 949.711 291.094 658.617 273.975 64.6124 235.998 18.0699 14.4342 345.676 125.882 217.928 229.059 144.722 76.0709 1463 175.978 618.927 17.1195 12.8483 82.0499 81.6174 595.377 44.916 200.954 93.9284 994.583 776.969 50.6302 217.614 30.3899 20.2404 726.339 25.4928 33.0425 41.9495 48.2543 13.5394 43.0284 140.216 114.221 184.552 30.6853 153.867 39.6899 700.846 8.83403 204.074 16.4017 35.3041 9.98448 150.148
internal_count=237750 186576 186082 51174 159780 142618 134785 7094 75686 44080 26302 25913 1387 7833 2526 24526 59099 17162 16285 2041 5307 389 12104 14244 18690 5183 13507 4912 299 4031 311 250 3063 828 3720 4315 1107 877 12422 2719 12993 271 217 1415 559 12413 597 1956 1304 25390 19704 1175 5686 741 434 18529 690 346 1001 228 328 531 1006 848 1738 313 1425 514 17839 162 5358 218 453 184 3941
cat_boundaries=0 1 2 3 4 5 6 7 8 9 10 11 12 13 14 15 16 17 18 19 20 21 22 23 24 25 26
cat_threshold=4 18 82870345 8397706 117460994 2 88 14602 52428928 2 896663590 1201620 59381380 7869440 1073451 14824704 4521988 10485760 1262132 8914976 1 16794624 8561540 34603137 131396 2625672
shrinkage=0.1


Tree=10
num_leaves=76
num_cat=28
split_feature=4 1 6 1 0 2 2 5 2 6 0 0 6 2 0 0 0 8 6 6 6 6 5 7 0 2 6 8 0 0 2 6 2 6 2 5 8 6 2 5 7 8 5 0 2 0 8 8 8 6 0 2 8 2 6 6 8 2 8 7 6 6 6 7 6 6 7 7 8 7 6 7 7 6 2
split_gain=297.785 292.603 133.055 94.6933 41.0398 45.4344 37.4289 45.2601 32.2896 31.732 29.151 27.7648 35.4786 31.1443 26.398 25.9628 21.1774 28.3877 19.4878 19.4794 18.8791 33.0768 18.8 16.5184 14.4816 14.369 14.2291 14.0828 11.6977 10.1748 9.49557 9.40746 9.31964 8.93184 7.15929 7.05549 7.00441 6.83269 6.47615 6.45983 6.18505 33.7639 5.78862 5.71535 9.39546 7.27087 6.34689 5.51558 5.37657 5.20882 6.86989 5.0306 4.06042 4.0322 3.93836 3.80641 3.61278 3.09046 2.71041 3.32596 5.06232 2.69424 2.55079 3.96872 2.76481 2.28007 2.27101 2.0989 1.98791 5.34417 2.37476 1.98548 1.94517 1.67525 1.57796
threshold=1.0000000180025095e-35 0 30.500000000000004 1 2 3 4 2.5000000000000004 5 28.500000000000004 6 7 253.50000000000003 8 9 10 11 1.5000000000000002 14.500000000000002 5.5000000000000009 51.500000000000007 76.500000000000014 12.500000000000002 3.5000000000000004 12 13 17.500000000000004 3.5000000000000004 14 15 16 2.5000000000000004 17 19.500000000000004 18 2.5000000000000004 5.5000000000000009 19.500000000000004 19 3.5000000000000004 1.0000000180025095e-35 1.5000000000000002 2.5000000000000004 20 21 22 3.5000000000000004 1.0000000180025095e-35 3.5000000000000004 57.500000000000007 23 24 5.5000000000000009 25 9.5000000000000018 21.500000000000004 1.0000000180025095e-35 26 4.5000000000000009 4.5000000000000009 31.500000000000004 1.5000000000000002 42.500000000000007 5.5000000000000009 61.500000000000007 130.50000000000003 5.5000000000000009 2.5000000000000004 1.0000000180025095e-35 3.5000000000000004 12.500000000000002 1.5000000000000002 1.5000000000000002 60.500000000000007 27
decision_type=2 1 2 1 1 1 1 2 1 2 1 1 2 1 1 1 1 2 2 2 2 2 2 2 1 1 2 2 1 1 1 2 1 2 1 2 2 2 1 2 2 2 2 1 1 1 2 2 2 2 1 1 2 1 2 2 2 1 2 2 2 2 2 2 2 2 2 2 2 2 2 2 2 2 1
left_child=1 -1 4 10 5 26 15 11 19 24 32 12 -8 -13 51 20 22 -18 29 -6 36 -22 -9 27 31 -20 56 -17 -25 -10 47 66 67 -21 39 38 -4 -16 -33 61 41 57 48 58 45 46 -45 55 -42 50 -46 -7 -28 68 -49 -26 -3 -34 62 -60 -61 -12 63 -11 -64 -51 71 -2 69 -36 -70 -5 -47 -63 -55
right_child=3 2 6 9 8 14 7 16 18 43 34 13 -14 -15 37 23 17 -19 25 33 21 -23 -24 28 30 -27 52 -29 -30 -31 -32 35 40 -35 53 -37 -38 -39 -40 -41 42 -43 -44 44 49 72 -48 54 -50 65 -52 -53 -54 74 -56 -57 -58 -59 59 60 -62 73 64 -65 -66 -67 -68 -69 70 -71 -72 -73 -74 -75 -76
leaf_value=0.1456673249750422 0.16460981461361598 0.060638908797597341 0.019272084375332506 -0.0066289826585948916 0.14233395728932985 0.038534163880345321 0.00028662103533151449 0.0412988699083243 0.039769526228891704 -0.054700551200398052 0.093694797983786493 0.045898788390193179 0.24893959806814492 0.01200545592799711 0.14853248407055858 -0.0046895696774976641 0.064530505508754721 0.0053897648817153813 0.020537798189606479 0.061492571366729899 0.1434375358448278 -0.00091137103890420962 0.097669254206633846 -0.0038837582492278473 -0.057525754975072486 -0.007674452095388468 0.055599134114660421 0.018447729492743137 -0.026564599060174516 0.023096079960427549 -0.0499958731586587 0.012544691890329666 0.010049192587891753 0.032877056432806966 0.092019411925040415 -0.09649953875372097 -0.064188254406066556 0.030143264009614958 -0.026304729207046088 -0.057204982479810235 -0.028112747842354704 0.21382473586580902 -0.060468408574843625 0.0042196554275057861 0.018387043272984304 -0.048234828190973529 0.1321797630582616 0.061689161360622038 0.012224052265137328 -0.05519669311345772 -0.034319627946664891 -0.0068196311410125242 0.10645484666411748 0.011951205924769571 0.01880672691423816 0.027375893748825837 0.12050525334236883 -0.045183051452443362 -0.024553802610696986 0.030133787252224948 -0.067605156692390506 0.046510969289922682 -0.078850860428534772 -0.0044219241085739968 -0.052920943565837902 -0.010845617442471403 -0.037637873624620018 0.046461751538894418 0.031284666145244576 0.010328305124773379 0.0065647158912058275 0.043248133670311918 -0.0051596089027683943 0.081646030885612217 -0.04087445048933
leaf_weight=167.06565248966217 4.318574845790863 14.671331003308294 68.059971526265144 10.561038497835396 21.71740335226059 17.907514669001102 2365.6554298326373 332.22285865992308 878.56591532379389 82.798610853031278 19.075080558657646 287.58020762354136 4.7522087246179572 3482.5155855566263 21.91637143492699 846.95837964490056 102.89876759052277 371.90514840185642 4149.6182718873024 214.59497801214457 35.26124918833375 28.212719805538654 72.174353778362274 477.96077216044068 13.203678879886867 188.47882853448391 104.90053038299084 380.4063543304801 447.47693482413888 866.70117036998272 12.392012413591145 44.345492698252201 16.936758337542415 230.97685596346855 13.684015739709141 12.721301831305025 10.779463067650793 6.9498772397637358 556.80166209489107 4.2726995330303899 107.03760796785355 6.2674880586564532 35.183964114636183 6.7940621748566619 23.727501057088375 14.184771889820693 8.240992119535802 26.518932364881039 46.92331313341856 170.59084447100759 380.41440729983151 147.8434152752161 19.665381073951721 7.5305432304739952 104.74177708104253 7.6453217305243006 105.53032709658146 12.902295393869283 66.293046349659562 5.3282270543277255 51.37943415902555 109.48905609548092 92.81469058804214 19.547032136470079 95.524188593029976 13.025185223668812 4.7831304632127276 3.5945996455848217 81.962587211281061 18.251763492822647 74.3598597869277 28.876545555889606 34.789368886500597 17.35089148953557 8.646886399015786
leaf_count=494 56 66 679 180 87 123 32638 3086 5689 2113 76 3625 57 45901 95 11758 1157 4310 42777 1469 357 299 541 6625 221 2141 722 5260 6347 6410 227 813 277 2170 105 344 116 55 11847 101 1825 67 887 141 502 349 151 295 635 4744 9559 984 117 101 1811 138 421 226 1750 117 1401 748 2543 482 2748 367 68 58 582 208 843 311 858 182 117
internal_value=0 0.180468 0.166308 -0.191437 0.270683 0.567288 0.0881402 0.124282 0.249458 -0.299599 0.158311 0.0940421 0.00886151 0.147168 0.178688 -0.0228493 0.336549 0.179383 0.229012 0.504249 0.375011 0.802588 0.50334 -0.050923 -0.153371 0.193402 0.855295 0.0249073 -0.151961 0.318674 0.110333 -0.217727 -0.114501 0.467656 0.335733 -0.253155 0.0719978 0.913921 -0.236513 0.50975 -0.16443 0.203396 -0.243993 -0.415055 -0.33316 0.0449633 0.481797 0.190416 -0.158196 -0.374409 -0.315807 0.0017354 0.644117 0.188392 0.278713 -0.265643 1.13759 -0.259164 -0.522338 -0.403443 -0.580586 0.579802 -0.589 -0.452335 -0.660483 -0.521263 0.220652 0.575769 0.232875 0.470629 0.196423 0.300579 -0.152915 0.519183 -0.213999
internal_weight=0 16471.9 16304.9 2475.83 6990.04 439.385 9314.82 7019.7 6550.65 1888.04 587.788 6140.5 2370.41 3770.1 194.617 2295.12 879.201 474.804 6083.36 467.289 142.313 63.474 404.397 2152.8 822.591 4338.1 244.768 1227.36 925.438 1745.27 164.502 658.089 233.165 445.572 354.623 613.868 78.8394 28.8662 601.147 150.188 225.251 36.1065 189.145 1065.45 651.767 64.0092 15.0351 152.11 153.961 587.758 404.142 165.751 124.566 204.436 131.261 20.849 120.202 29.8391 413.685 123.001 56.7077 145.915 290.685 102.346 188.339 183.616 44.2207 7.91317 188.258 31.9358 156.322 39.4376 48.9741 126.84 16.1774
internal_count=237750 186576 186082 51174 63326 2583 122756 91315 60743 44080 7094 82221 32695 49526 1257 31441 9094 5467 57017 3726 1451 656 3627 29990 16255 44918 1326 17018 12972 12099 2692 13563 4031 3639 3063 13004 795 150 12660 1107 3917 570 3347 27825 16671 1499 292 2465 2460 15172 10061 1107 839 1956 2106 359 487 503 11154 3268 1518 1006 7886 2595 5291 5111 559 114 1738 313 1425 491 1207 930 218
cat_boundaries=0 1 2 3 4 5 6 7 8 9 10 11 12 13 14 15 16 17 18 19 20 21 22 23 24 25 26 27 28
cat_threshold=4 18 2097240 2129 1544308 8435978 117460994 34230276 8413962 2097152 73433160 28446849 51050118 7078593 34807972 923926564 8146951 12722176 4521988 14224416 541730 12598166 133 67141704 1605646 1 1 2625672
shrinkage=0.1


Tree=11
num_leaves=76
num_cat=22
split_feature=4 1 6 1 0 6 2 6 0 2 0 0 1 5 6 0 2 0 7 2 6 6 6 2 0 2 7 5 5 6 5 6 5 8 2 6 6 0 2 5 5 0 7 6 6 6 6 6 0 0 7 8 7 6 6 8 5 6 6 6 8 7 8 6 8 6 7 8 5 6 6 6 6 6 6
split_gain=241.627 256.485 105.268 79.1714 41.7873 27.8795 27.54 26.893 40.6269 26.8685 24.5532 23.147 22.027 20.5256 21.1876 20.1462 17.9301 24.0552 18.4018 17.8653 16.1278 14.1166 14.1024 13.4787 15.3954 12.7149 12.3221 15.7662 11.9169 12.6613 11.7223 10.5322 9.20724 8.23639 7.97654 7.39623 10.4591 6.94618 8.18063 6.93879 6.71948 6.52614 6.22426 6.06243 6.0497 5.88617 5.7591 5.48445 5.28297 5.18126 5.17493 4.90116 4.61899 4.56025 7.45495 4.327 4.05502 3.91049 3.87959 3.84528 3.52176 3.47942 3.40243 3.27231 2.88097 2.86003 2.51164 1.82982 1.79803 1.48613 1.44876 1.43031 2.14285 1.27098 1.02873
threshold=1.0000000180025095e-35 0 33.500000000000007 1 2 28.500000000000004 3 144.50000000000003 4 5 6 7 8 5.5000000000000009 17.500000000000004 9 10 11 5.5000000000000009 12 295.50000000000006 17.500000000000004 9.5000000000000018 13 14 15 4.5000000000000009 3.5000000000000004 12.500000000000002 55.500000000000007 1.5000000000000002 6.5000000000000009 1.5000000000000002 5.5000000000000009 16 108.50000000000001 24.500000000000004 17 18 2.5000000000000004 2.5000000000000004 19 2.5000000000000004 57.500000000000007 124.50000000000001 51.500000000000007 53.500000000000007 12.500000000000002 20 21 4.5000000000000009 5.5000000000000009 2.5000000000000004 74.500000000000014 98.500000000000014 1.5000000000000002 1.5000000000000002 27.500000000000004 47.500000000000007 14.500000000000002 3.5000000000000004 1.5000000000000002 1.0000000180025095e-35 136.50000000000003 5.5000000000000009 76.500000000000014 5.5000000000000009 4.5000000000000009 4.5000000000000009 42.500000000000007 16.500000000000004 22.500000000000004 8.5000000000000018 62.500000000000007 63.500000000000007
decision_type=2 1 2 1 1 2 1 2 1 1 1 1 1 2 2 1 1 1 2 1 2 2 2 1 1 1 2 2 2 2 2 2 2 2 1 2 2 1 1 2 2 1 2 2 2 2 2 2 1 1 2 2 2 2 2 2 2 2 2 2 2 2 2 2 2 2 2 2 2 2 2 2 2 2 2
left_child=1 -1 4 11 16 23 15 10 42 22 19 34 -12 14 -11 28 21 32 -19 -8 -10 40 60 55 31 41 44 -28 29 -4 -24 33 -18 -25 35 36 -2 53 43 46 -3 -26 -9 45 -17 -39 57 -13 -15 61 59 -23 -48 58 64 71 -33 -36 66 -49 -6 -40 -61 74 -55 -51 -7 -45 -65 -38 -27 72 -5 -60 -41
right_child=3 2 6 5 9 37 7 8 20 13 12 47 -14 48 -16 26 17 18 -20 -21 -22 51 30 24 25 70 27 -29 -30 -31 -32 56 -34 -35 39 -37 69 38 49 63 -42 -43 -44 67 -46 -47 52 50 -50 65 -52 -53 -54 54 -56 -57 -58 -59 73 62 -62 -63 -64 68 -66 -67 -68 -69 -70 -71 -72 -73 -74 -75 -76
leaf_value=0.13821019313894131 0.12102305746466557 0.092465675531257785 0.026365545892057543 0.019341617810769818 0.060991514594122768 -0.057273063389526174 0.024491155350351998 0.012484827280191036 0.067619752845384851 0.025562343101798266 0.070354939319158469 0.041258474736486181 0.0022718777716654848 0.023960768664061455 0.013836306927563082 0.063990082851141827 -0.0098192949071171237 0.050697489148498379 0.18102220561067936 -0.040281157547034034 0.18852261511808219 0.040104269827572543 0.0291985986939798 -0.0018567574638597866 -0.017688489420471673 0.14534884474092116 -0.010533040739101083 0.13445520619318516 0.12663553047525047 -0.01963328515934391 0.068210087546837106 -0.025208528594716617 0.052462811825598511 0.088308232614455751 -0.012546952423060122 0.15679118626553756 -0.083836742077294982 -0.038302042769166836 -0.02993436447346981 -0.050790638512166308 0.023765186879063843 0.016305024732134219 -0.042658684797437757 -0.063934448173370961 0.16303504817223013 4.7935957207296195e-05 -0.0071803470047450205 -0.062517147156698524 0.069335717552935189 -0.015277180596181106 -0.048154082574318163 0.081715934506449345 -0.055730599149286478 -0.010694682398554197 -0.072329087319762425 -0.093313438635134194 -0.077790376207735434 0.02784604580876425 -0.089336682247784571 0.058284675328465124 0.11376431867523557 0.095683241200627656 0.0171281370768183 -0.036772254770305685 0.067047363128116974 -0.044745437896521453 -0.016690339240097978 -0.039193381930747465 0.046917386897922506 -0.0076353162550950281 0.074075146074913986 0.028928805456410713 -0.071232327136239809 -0.057933582955936772 -0.095587762911317348
leaf_weight=159.45618751645088 5.3078888282179859 146.99035599082708 134.33553951978683 3.444207660853861 29.869744583964348 103.90811983682215 771.17864831537008 37.361742850393057 108.5140464194119 2423.7131108567119 36.881128191947937 202.49708296731114 6953.01655850932 89.484057858586311 4244.4990604668856 156.4705323651433 141.11223199218512 84.164303086698055 11.772823773324488 36.522323828190565 11.821689255535601 192.41614454239607 377.81668774038553 106.45351893082261 85.815237604081631 7.6731064394116428 45.635269455611706 7.9486032947897902 7.4901878163218489 106.32386826723814 97.124369040131569 404.67945012077689 27.495159111917019 10.192537263035772 46.888736832886934 4.4905937761068335 3.6758236363530141 300.70572272501886 2.416848184540866 17.848069855943326 16.666005939245224 125.089480612427 43.334378484636545 115.05564804375172 5.9361624494194976 46.14053432457149 44.862826377153397 4.3670605141669503 90.895967483520508 205.64396272227168 10.641177436336873 33.889367334544659 34.276612367480993 24.352157199755315 21.559331810101867 32.99872775375843 14.504182174801825 47.127928592264652 58.700270915403962 23.529043838381767 29.857857763767242 7.7436676695942879 121.23394442908466 4.9358044937252981 4.8746204953640691 38.838728493079543 19.042318305000663 49.379213763400912 3.5237188152968884 6.15314831584692 11.22363782674074 3.1507031470537177 6.5799001529812813 27.558845322579145 11.621476154774426
leaf_count=494 66 634 1641 68 137 2817 8093 466 1359 17916 174 1230 95159 613 46519 1861 988 551 75 459 120 1352 3360 1722 1745 104 573 75 57 1458 658 8947 169 140 642 61 68 7730 61 499 73 1970 586 3424 66 1246 696 52 549 5278 165 211 719 733 657 725 416 662 1737 265 130 176 1351 112 136 1104 492 1410 50 116 196 72 150 824 340
internal_value=0 0.160639 0.147825 -0.176813 0.229867 -0.278413 0.070061 0.0559857 0.41628 0.207382 0.0467164 0.14032 0.0274109 0.189801 0.181016 0.304239 0.472437 0.244217 0.61997 0.210604 0.747892 0.61631 0.424201 -0.141211 -0.102639 0.110984 0.525104 0.130437 0.0978676 0.0604601 0.373029 -0.194645 0.00553954 0.0670552 -0.10542 0.384509 0.196307 -0.389448 -0.323756 -0.167764 0.856564 0.0228218 -0.15402 -0.40109 0.685859 -0.332149 -0.0893442 0.295315 0.522257 -0.158302 0.163413 0.466677 -0.286413 -0.547603 -0.291381 -0.613298 -0.272087 0.077809 -0.63417 0.212334 0.888116 0.347034 0.241715 -0.557372 0.0406079 -0.193341 -0.511731 -0.567866 -0.00637648 -0.412433 0.724525 -0.235559 -0.411803 -0.800826 -0.71014
internal_weight=0 16660 16500.5 2430.71 8037.77 1837.72 8462.77 7998.63 201.032 7383.26 7797.6 592.981 6989.9 6848.59 6668.21 464.14 654.506 264.545 95.9371 807.701 120.336 389.962 534.669 811.805 765.631 229.801 215.991 53.5839 248.15 240.659 474.941 535.83 168.607 116.646 230.713 19.6275 15.1369 1025.92 765.924 211.085 163.656 210.905 80.6961 511.281 162.407 346.846 173.156 362.268 180.38 254.643 159.771 226.306 79.1394 259.996 50.7861 46.1735 419.184 94.0167 209.21 149.13 59.7276 10.1605 144.763 37.9291 29.2268 244.483 122.95 164.435 8.45952 9.82897 18.8967 13.1748 10.0241 86.2591 29.4695
internal_count=237750 186576 186082 51174 73935 44080 112147 106416 2531 69882 103885 7094 95333 65597 64435 5731 4053 1783 626 8552 1479 2270 4285 16255 15240 4015 2575 648 3156 3099 4018 11225 1157 1862 4031 311 250 27825 20429 3720 707 3715 1052 13810 1927 8976 2719 3063 1162 6619 1833 1563 1415 7396 1526 1015 9363 1304 5870 1668 267 237 1616 1001 869 6382 3309 4834 162 184 300 290 218 2561 839
cat_boundaries=0 1 2 3 4 5 6 7 8 9 10 11 12 13 14 15 16 17 18 19 20 21 22
cat_threshold=4 18 337641561 8413834 100679686 8435978 74448961 117460994 2 35262501 2649 2097152 7150593 172864 51033996 804913 14824704 541728 3687521 8404994 33575076 295497
shrinkage=0.1


Tree=12
num_leaves=76
num_cat=27
split_feature=4 1 6 1 5 0 0 2 6 6 0 6 2 2 0 0 0 2 6 6 2 0 6 5 1 2 8 2 7 6 2 0 5 5 6 2 5 6 8 6 0 2 5 7 6 2 6 6 8 0 2 6 6 2 6 6 6 2 5 6 8 7 6 7 6 6 6 6 6 6 6 8 8 6 7
split_gain=196.063 226.245 83.6087 66.0723 29.6726 30.2095 26.1381 36.8914 25.4426 31.4503 25.2028 25.1522 24.2502 18.6936 18.4239 18.4199 15.6868 15.107 14.9239 13.3993 13.2537 12.9399 12.524 12.1917 11.3054 11.4488 9.90836 9.43346 8.74916 10.4422 8.49306 8.15889 6.94172 6.91504 6.90186 6.62228 6.85608 6.56056 8.11438 6.3195 6.21537 7.70088 5.77529 5.44079 5.21205 5.06281 4.99444 4.96162 5.5759 4.79649 6.80934 4.63482 4.62298 4.55173 4.44485 7.95175 4.01529 3.34449 5.01891 3.17759 2.9882 2.56349 2.47366 3.66591 3.82746 2.2639 2.08489 1.68613 1.48847 7.35633 5.26394 1.32012 1.08095 1.05366 0.749289
threshold=1.0000000180025095e-35 0 28.500000000000004 1 1.5000000000000002 2 3 4 110.50000000000001 59.500000000000007 5 16.500000000000004 6 7 8 9 10 11 5.5000000000000009 295.50000000000006 12 13 14.500000000000002 6.5000000000000009 14 15 1.5000000000000002 16 1.0000000180025095e-35 39.500000000000007 17 18 3.5000000000000004 1.5000000000000002 4.5000000000000009 19 2.5000000000000004 17.500000000000004 5.5000000000000009 33.500000000000007 20 21 1.5000000000000002 3.5000000000000004 15.500000000000002 22 30.500000000000004 168.50000000000003 3.5000000000000004 23 24 47.500000000000007 85.500000000000014 25 108.50000000000001 24.500000000000004 247.50000000000003 26 3.5000000000000004 26.500000000000004 5.5000000000000009 2.5000000000000004 7.5000000000000009 1.5000000000000002 13.500000000000002 39.500000000000007 1.5000000000000002 136.50000000000003 39.500000000000007 51.500000000000007 33.500000000000007 4.5000000000000009 5.5000000000000009 63.500000000000007 2.5000000000000004
decision_type=2 1 2 1 2 1 1 1 2 2 1 2 1 1 1 1 1 1 2 2 1 1 2 2 1 1 2 1 2 2 1 1 2 2 2 1 2 2 2 2 1 1 2 2 2 1 2 2 2 1 1 2 2 1 2 2 2 1 2 2 2 2 2 2 2 2 2 2 2 2 2 2 2 2 2
left_child=1 -1 6 14 8 17 7 37 9 12 19 20 -4 18 35 32 -11 46 -8 -10 62 28 26 -19 25 -7 -15 -24 -13 61 -12 34 -9 -20 71 36 47 38 -3 40 53 -42 44 -17 -33 57 -6 48 -2 52 -51 -31 -41 -23 55 -37 -49 68 66 -39 -36 -30 -5 64 -64 -57 -59 73 70 -70 -16 -22 -65 -38 -47
right_child=3 2 4 11 5 24 13 15 10 16 30 21 -14 22 45 43 -18 23 33 -21 31 39 27 -25 -26 -27 -28 -29 29 51 -32 42 -34 -35 60 54 67 59 -40 49 41 -43 -44 -45 -46 74 -48 56 -50 50 -52 -53 -54 -55 -56 65 -58 58 -60 -61 -62 -63 63 72 -66 -67 -68 -69 69 -71 -72 -73 -74 -75 -76
leaf_value=0.13192000673139903 -0.014278907643012895 0.074005455717459381 -0.020907887280396956 -0.092339200883466768 0.048874374964461918 -0.03341312117236396 0.12370711345962832 -0.0011659513366260785 0.05929853624589574 -0.016752081704511094 -0.03368864083181914 -0.076873147718310261 0.0089368001285517785 0.012891467793032508 0.01745806083370003 0.050578572388953004 0.0006133477936310375 0.0017072141340925624 0.03042664114988218 0.18972836110245628 0.048770869496361516 0.008804170730182307 -0.011326035413748861 0.040725501349065794 -0.049029514239494421 0.03012516879830764 0.029798020562345946 0.0160509320348916 0.11576763719070256 -0.088184975906120067 0.016584342923177623 -0.010134048978311168 0.063090831625953622 0.065723827347100153 0.0040736572511595251 0.09725783337956169 -0.047705084088626094 0.045897633070637114 0.14383185567992407 -0.048132460322705718 0.03980373827970024 -0.016581891477358706 -0.081115950467563258 0.12535882135040988 0.053369268563062268 -0.052767333641335269 -0.027376994791470585 -0.096891780694855698 0.028814827543333657 0.012874280129931632 -0.034621622565350424 0.010026626872835719 -0.084240173664114973 -0.037099046678961044 0.10695471760898348 -0.084444427805406036 0.0096674863551899793 0.076937878963062367 -0.055826940751407532 0.086837212700309668 0.048423689749481115 0.046523190060202217 0.06442616316119254 -0.076506829576054827 -0.072049679637863004 -0.00082055041849403627 0.041370280666536939 -0.014544627849024307 0.091778161443359402 0.010115878740252602 -0.063974878114009787 0.1020651959084759 -0.0088570493169158934 -0.094285088515191268 -0.0092567073224376541
